{"learner":{"attributes":{"best_iteration":"23","best_score":"0.0053475935828877"},"feature_names":["Age","SystolicBP","DiastolicBP","BS","BodyTemp","BMI","PreviousComplications","PreexistingDiabetes","GestationalDiabetes","MentalHealth","HeartRate"],"feature_types":["float","float","float","float","float","float","float","float","float","float","float"],"gradient_booster":{"model":{"cats":{"enc":[],"feature_segments":[],"sorted_idx":[]},"gbtree_model_param":{"num_parallel_tree":"1","num_trees":"148"},"iteration_indptr":[0,2,4,6,8,10,12,14,16,18,20,22,24,26,28,30,32,34,36,38,40,42,44,46,48,50,52,54,56,58,60,62,64,66,68,70,72,74,76,78,80,82,84,86,88,90,92,94,96,98,100,102,104,106,108,110,112,114,116,118,120,122,124,126,128,130,132,134,136,138,140,142,144,146,148],"tree_info":[0,1,0,1,0,1,0,1,0,1,0,1,0,1,0,1,0,1,0,1,0,1,0,1,0,1,0,1,0,1,0,1,0,1,0,1,0,1,0,1,0,1,0,1,0,1,0,1,0,1,0,1,0,1,0,1,0,1,0,1,0,1,0,1,0,1,0,1,0,1,0,1,0,1,0,1,0,1,0,1,0,1,0,1,0,1,0,1,0,1,0,1,0,1,0,1,0,1,0,1,0,1,0,1,0,1,0,1,0,1,0,1,0,1,0,1,0,1,0,1,0,1,0,1,0,1,0,1,0,1,0,1,0,1,0,1,0,1,0,1,0,1,0,1,0,1,0,1],"trees":[{"base_weights":[-8.51261E-3,4.6334612E-1,-1.0920655E0,7.16034E-1,-5.9848752E-2,-4.9248466E-1,-5.994312E-2,8.1702226E-1,-3.6112455E-1,-1.0453157E0,3.4717526E-2,-1.6134156E-2,4.1408125E-2,1.3160964E-2,-5.4389454E-2,-1.6134156E-2,-5.5818703E-2],"categories":[],"categories_nodes":[],"categories_segments":[],"categories_sizes":[],"default_left":[0,0,0,0,0,0,0,0,0,0,0,0,0,0,0,0,0],"id":0,"left_children":[1,3,5,7,-1,9,-1,11,13,15,-1,-1,-1,-1,-1,-1,-1],"loss_changes":[1.6398021E2,9.4599304E1,5.6396484E0,2.1458344E1,0E0,1.1490778E1,0E0,2.5295181E0,8.166879E0,2.3502064E-1,0E0,0E0,0E0,0E0,0E0,0E0,0E0],"parents":[2147483647,0,0,1,1,2,2,3,3,5,5,7,7,8,8,9,9],"right_children":[2,4,6,8,-1,10,-1,12,14,16,-1,-1,-1,-1,-1,-1,-1],"split_conditions":[1E0,1E0,2.22E1,2.5E1,-5.9848752E-2,1.84E1,-5.994312E-2,1.81E1,1E0,6E0,3.4717526E-2,-1.6134156E-2,4.1408125E-2,1.3160964E-2,-5.4389454E-2,-1.6134156E-2,-5.5818703E-2],"split_indices":[7,8,5,5,0,5,0,5,9,3,0,0,0,0,0,0,0],"split_type":[0,0,0,0,0,0,0,0,0,0,0,0,0,0,0,0,0],"sum_hessian":[3.1873273E2,2.2243886E2,9.629388E1,1.9355069E2,2.8888165E1,1.5407021E1,8.0886856E1,1.7718074E2,1.6369959E1,1.0592327E1,4.814694E0,1.4444082E0,1.7573633E2,9.147919E0,7.222041E0,1.4444082E0,9.147919E0],"tree_param":{"num_deleted":"0","num_feature":"11","num_nodes":"17","size_leaf_vector":"1"}},{"base_weights":[3.091502E-2,-4.293058E-1,1.0920657E0,-6.4684093E-1,8.403635E-1,4.2294258E-1,5.8865633E-2,-7.487036E-1,4.5453826E-1,2.2949272E-1,1.0626192E0,-2.7220747E-1,5.27845E-2,-4.022547E-2,5.1271535E-2,3.7894833E-3,4.2227034E-2,-1.3610373E-2,4.7751978E-2,1.6134162E-2,5.4776777E-2,-3.4066554E-2,3.658901E-2],"categories":[],"categories_nodes":[],"categories_segments":[],"categories_sizes":[],"default_left":[0,0,0,0,0,0,0,0,0,0,0,0,0,0,0,0,0,0,0,0,0,0,0],"id":1,"left_children":[1,3,5,7,9,11,-1,13,15,17,19,21,-1,-1,-1,-1,-1,-1,-1,-1,-1,-1,-1],"loss_changes":[1.5708493E2,6.2522823E1,5.0517654E0,2.1896767E1,4.2716217E0,5.809854E0,0E0,1.8275414E1,2.4306397E0,3.9538817E0,2.337246E-1,3.2825317E0,0E0,0E0,0E0,0E0,0E0,0E0,0E0,0E0,0E0,0E0,0E0],"parents":[2147483647,0,0,1,1,2,2,3,3,4,4,5,5,7,7,8,8,9,9,10,10,11,11],"right_children":[2,4,6,8,10,12,-1,14,16,18,20,22,-1,-1,-1,-1,-1,-1,-1,-1,-1,-1,-1],"split_conditions":[7.6E0,7.9E1,7.9E0,1E0,8.1E1,1E0,5.8865633E-2,1E0,7.5E1,7.01E0,4.9E0,1E0,5.27845E-2,-4.022547E-2,5.1271535E-2,3.7894833E-3,4.2227034E-2,-1.3610373E-2,4.7751978E-2,1.6134162E-2,5.4776777E-2,-3.4066554E-2,3.658901E-2],"split_indices":[3,10,3,7,10,9,0,8,10,3,3,8,0,0,0,0,0,0,0,0,0,0,0],"split_type":[0,0,0,0,0,0,0,0,0,0,0,0,0,0,0,0,0,0,0,0,0,0,0],"sum_hessian":[3.1969565E2,2.2340178E2,9.629387E1,1.9114334E2,3.2258446E1,1.1555264E1,8.473861E1,1.7525485E2,1.5888489E1,9.147918E0,2.3110529E1,5.777632E0,5.777632E0,1.7044016E2,4.8146935E0,8.666449E0,7.2220407E0,5.777632E0,3.3702855E0,1.444408E0,2.166612E1,4.3332243E0,1.444408E0],"tree_param":{"num_deleted":"0","num_feature":"11","num_nodes":"23","size_leaf_vector":"1"}},{"base_weights":[-3.061804E-2,4.918162E-1,-8.752857E-1,6.7730844E-1,-9.844486E-1,-4.2798677E-1,-5.7149123E-2,-7.0967734E-1,7.4557424E-1,-1.0183434E0,-1.47649115E-2,1.50671E-1,-1.0023704E0,-6.921995E-3,-4.8346516E-2,4.0091205E-2,-8.057618E-3,-1.5467278E-2,-5.2756768E-2,2.7185787E-2,-3.403381E-2,-1.7483508E-2,-5.5532854E-2],"categories":[],"categories_nodes":[],"categories_segments":[],"categories_sizes":[],"default_left":[0,0,0,0,0,0,0,0,0,0,0,0,0,0,0,0,0,0,0,0,0,0,0],"id":2,"left_children":[1,3,5,7,9,11,-1,13,15,17,-1,19,21,-1,-1,-1,-1,-1,-1,-1,-1,-1,-1],"loss_changes":[1.4152972E2,5.4940228E1,1.4185074E1,1.7256516E1,2.2558594E-1,1.59326515E1,0E0,1.1592813E0,8.741943E0,2.2312546E-1,0E0,8.382904E0,1.3050728E0,0E0,0E0,0E0,0E0,0E0,0E0,0E0,0E0,0E0,0E0],"parents":[2147483647,0,0,1,1,2,2,3,3,4,4,5,5,7,7,8,8,9,9,11,11,12,12],"right_children":[2,4,6,8,10,12,-1,14,16,18,-1,20,22,-1,-1,-1,-1,-1,-1,-1,-1,-1,-1],"split_conditions":[2.41E1,8.1E1,7.9E0,1.85E1,1.4E1,1E0,-5.7149123E-2,1E0,1E0,5E0,-1.47649115E-2,7.9E1,2.45E1,-6.921995E-3,-4.8346516E-2,4.0091205E-2,-8.057618E-3,-1.5467278E-2,-5.2756768E-2,2.7185787E-2,-3.403381E-2,-1.7483508E-2,-5.5532854E-2],"split_indices":[5,10,3,5,3,9,0,9,7,3,0,10,5,0,0,0,0,0,0,0,0,0,0],"split_type":[0,0,0,0,0,0,0,0,0,0,0,0,0,0,0,0,0,0,0,0,0,0,0],"sum_hessian":[3.187476E2,1.9719717E2,1.21550415E2,1.7566599E2,2.1531178E1,4.6481876E1,7.5068535E1,7.799733E0,1.6786626E2,2.0066551E1,1.464625E0,2.352226E1,2.2959614E1,2.8994873E0,4.9002457E0,1.5816971E2,9.696546E0,1.4540601E0,1.8612492E1,1.6206247E1,7.316015E0,3.8688927E0,1.9090721E1],"tree_param":{"num_deleted":"0","num_feature":"11","num_nodes":"23","size_leaf_vector":"1"}},{"base_weights":[9.7143435E-4,-3.9956504E-1,1.0701988E0,-6.22731E-1,7.713634E-1,4.758915E-1,5.5473268E-2,-7.580941E-1,1.4347608E-1,2.5430956E-1,9.8041874E-1,-1.2666027E-1,4.5036566E-2,-3.9477754E-2,-8.991967E-3,-3.4151815E-3,4.895777E-2,-1.6515365E-2,4.874083E-2,5.0319117E-2,1.5316469E-2,-2.4985244E-2,1.4772599E-2],"categories":[],"categories_nodes":[],"categories_segments":[],"categories_sizes":[],"default_left":[0,0,0,0,0,0,0,0,0,0,0,0,0,0,0,0,0,0,0,0,0,0,0],"id":3,"left_children":[1,3,5,7,9,11,-1,13,15,17,19,21,-1,-1,-1,-1,-1,-1,-1,-1,-1,-1,-1],"loss_changes":[1.4182497E2,6.343452E1,1.578064E0,2.1153183E1,3.967638E0,1.9941473E0,0E0,2.9979935E0,5.607262E0,5.621946E0,1.7179108E-1,7.639151E-1,0E0,0E0,0E0,0E0,0E0,0E0,0E0,0E0,0E0,0E0,0E0],"parents":[2147483647,0,0,1,1,2,2,3,3,4,4,5,5,7,7,8,8,9,9,10,10,11,11],"right_children":[2,4,6,8,10,12,-1,14,16,18,20,22,-1,-1,-1,-1,-1,-1,-1,-1,-1,-1,-1],"split_conditions":[7.9E0,7.9E1,8E0,1E0,8.1E1,7.5E1,5.5473268E-2,1E0,1E0,7.01E0,7.8E0,1E0,4.5036566E-2,-3.9477754E-2,-8.991967E-3,-3.4151815E-3,4.895777E-2,-1.6515365E-2,4.874083E-2,5.0319117E-2,1.5316469E-2,-2.4985244E-2,1.4772599E-2],"split_indices":[3,10,3,9,10,2,0,7,8,3,3,9,0,0,0,0,0,0,0,0,0,0,0],"split_type":[0,0,0,0,0,0,0,0,0,0,0,0,0,0,0,0,0,0,0,0,0,0,0],"sum_hessian":[3.2916354E2,2.3991632E2,8.924723E1,2.0190385E2,3.801246E1,6.344331E0,8.29029E1,1.7159871E2,3.0305145E1,1.1582379E1,2.643008E1,2.9136932E0,3.4306376E0,1.6239777E2,9.200955E0,2.4910528E1,5.3946157E0,6.6931467E0,4.8892326E0,2.4975172E1,1.4549092E0,1.4491642E0,1.4645289E0],"tree_param":{"num_deleted":"0","num_feature":"11","num_nodes":"23","size_leaf_vector":"1"}},{"base_weights":[1.796739E-2,5.203122E-1,-8.210351E-1,6.7723334E-1,-9.05276E-1,-1.19193755E-1,-9.73814E-1,-6.6138726E-1,7.37578E-1,-9.404575E-1,-1.36393225E-2,4.6344674E-1,-4.5899503E-2,-6.268905E-1,-5.369411E-2,-4.0576547E-2,-5.45851E-3,3.9277624E-2,-1.5842164E-3,-1.4164949E-2,-4.8993576E-2,3.275835E-2,-3.3504255E-2,7.3925704E-3,-4.928091E-2],"categories":[],"categories_nodes":[],"categories_segments":[],"categories_sizes":[],"default_left":[0,0,0,0,0,0,0,0,0,0,0,0,0,0,0,0,0,0,0,0,0,0,0,0,0],"id":4,"left_children":[1,3,5,7,9,11,13,15,17,19,-1,21,-1,23,-1,-1,-1,-1,-1,-1,-1,-1,-1,-1,-1],"loss_changes":[1.3508951E2,4.5457317E1,1.2756035E1,1.512133E1,1.9529533E-1,1.0943664E1,2.7444458E0,6.030083E-1,6.439514E0,2.1005058E-1,0E0,3.4233935E0,0E0,6.938568E0,0E0,0E0,0E0,0E0,0E0,0E0,0E0,0E0,0E0,0E0,0E0],"parents":[2147483647,0,0,1,1,2,2,3,3,4,4,5,5,6,6,7,7,8,8,9,9,11,11,13,13],"right_children":[2,4,6,8,10,12,14,16,18,20,-1,22,-1,24,-1,-1,-1,-1,-1,-1,-1,-1,-1,-1,-1],"split_conditions":[2.41E1,8.1E1,7E0,1.85E1,1.4E1,1E0,7.9E0,1.79E1,1E0,5E0,-1.36393225E-2,1E0,-4.5899503E-2,7.7E1,-5.369411E-2,-4.0576547E-2,-5.45851E-3,3.9277624E-2,-1.5842164E-3,-1.4164949E-2,-4.8993576E-2,3.275835E-2,-3.3504255E-2,7.3925704E-3,-4.928091E-2],"split_indices":[5,10,3,5,3,7,3,5,7,3,0,8,0,10,0,0,0,0,0,0,0,0,0,0,0],"split_type":[0,0,0,0,0,0,0,0,0,0,0,0,0,0,0,0,0,0,0,0,0,0,0,0,0],"sum_hessian":[3.185074E2,1.9946153E2,1.1904586E2,1.8015587E2,1.9305655E1,2.1599855E1,9.744601E1,7.3414235E0,1.7281445E2,1.7827127E1,1.478528E0,1.2732566E1,8.8672905E0,2.34416E1,7.40044E1,5.402844E0,1.9385796E0,1.6264973E2,1.0164709E1,1.471995E0,1.6355131E1,1.1251544E1,1.4810216E0,7.6049924E0,1.5836609E1],"tree_param":{"num_deleted":"0","num_feature":"11","num_nodes":"25","size_leaf_vector":"1"}},{"base_weights":[3.4567597E-3,-4.908178E-1,8.25361E-1,-6.621483E-1,9.6346325E-1,4.3351915E-1,5.369091E-2,7.27654E-1,-7.371454E-1,1.4605216E-2,4.9876917E-2,-1.8018366E-1,9.348676E-1,4.2625412E-2,1.2408216E-2,-3.899043E-2,3.107326E-3,2.661111E-2,-2.5665576E-2,4.991396E-2,-5.441859E-3],"categories":[],"categories_nodes":[],"categories_segments":[],"categories_sizes":[],"default_left":[0,0,0,0,0,0,0,0,0,0,0,0,0,0,0,0,0,0,0,0,0],"id":5,"left_children":[1,3,5,7,9,11,-1,13,15,-1,-1,17,19,-1,-1,-1,-1,-1,-1,-1,-1],"loss_changes":[1.3202443E2,5.120454E1,1.1416092E1,1.9522018E1,2.072506E-1,1.5255101E1,0E0,3.768773E-1,5.95874E0,0E0,0E0,5.704297E0,1.9054432E0,0E0,0E0,0E0,0E0,0E0,0E0,0E0,0E0],"parents":[2147483647,0,0,1,1,2,2,3,3,4,4,5,5,7,7,8,8,11,11,12,12],"right_children":[2,4,6,8,10,12,-1,14,16,-1,-1,18,20,-1,-1,-1,-1,-1,-1,-1,-1],"split_conditions":[2.41E1,8.1E1,7.9E0,1.85E1,4.9E0,7.7E1,5.369091E-2,2.4E1,1E0,1.4605216E-2,4.9876917E-2,7E1,3.4E1,4.2625412E-2,1.2408216E-2,-3.899043E-2,3.107326E-3,2.661111E-2,-2.5665576E-2,4.991396E-2,-5.441859E-3],"split_indices":[5,10,3,5,3,10,0,0,7,0,0,10,0,0,0,0,0,0,0,0,0],"split_type":[0,0,0,0,0,0,0,0,0,0,0,0,0,0,0,0,0,0,0,0,0],"sum_hessian":[3.2298898E2,2.0194604E2,1.2104294E2,1.8114932E2,2.0796717E1,4.8033756E1,7.300918E1,8.82921E0,1.7232011E2,1.4669387E0,1.9329777E1,2.1884926E1,2.6148832E1,6.3879123E0,2.4412975E0,1.6361153E2,8.708592E0,6.782549E0,1.5102377E1,2.4692152E1,1.4566803E0],"tree_param":{"num_deleted":"0","num_feature":"11","num_nodes":"21","size_leaf_vector":"1"}},{"base_weights":[4.1269255E-3,4.7697076E-1,-7.7087337E-1,6.426828E-1,-8.748499E-1,-3.469689E-1,-9.914193E-1,-7.117921E-1,7.213816E-1,-4.5397647E-2,-1.2263182E-2,1.2049601E-1,-8.420974E-1,-1.0013046E0,-1.9775497E-2,-1.1456087E-2,-4.5763385E-2,3.788991E-2,1.962195E-3,2.160654E-2,-3.8255002E-2,1.3623803E-2,-4.97722E-2,-1.9950135E-2,-5.0582517E-2],"categories":[],"categories_nodes":[],"categories_segments":[],"categories_sizes":[],"default_left":[0,0,0,0,0,0,0,0,0,0,0,0,0,0,0,0,0,0,0,0,0,0,0,0,0],"id":6,"left_children":[1,3,5,7,9,11,13,15,17,-1,-1,19,21,23,-1,-1,-1,-1,-1,-1,-1,-1,-1,-1,-1],"loss_changes":[1.18855E2,4.568554E1,1.1146271E1,1.9701988E1,2.4456024E-1,1.0192608E1,7.702637E-2,8.1053686E-1,4.2087326E0,0E0,0E0,6.761193E0,3.9114084E0,8.4503174E-2,0E0,0E0,0E0,0E0,0E0,0E0,0E0,0E0,0E0,0E0,0E0],"parents":[2147483647,0,0,1,1,2,2,3,3,4,4,5,5,6,6,7,7,8,8,11,11,12,12,13,13],"right_children":[2,4,6,8,10,12,14,16,18,-1,-1,20,22,24,-1,-1,-1,-1,-1,-1,-1,-1,-1,-1,-1],"split_conditions":[2.41E1,8.1E1,7.7E1,1.85E1,4E1,1E0,6E1,1E0,1E0,-4.5397647E-2,-1.2263182E-2,1.25E2,2.45E1,2E1,-1.9775497E-2,-1.1456087E-2,-4.5763385E-2,3.788991E-2,1.962195E-3,2.160654E-2,-3.8255002E-2,1.3623803E-2,-4.97722E-2,-1.9950135E-2,-5.0582517E-2],"split_indices":[5,10,10,5,0,9,0,9,7,0,0,1,5,0,0,0,0,0,0,0,0,0,0,0,0],"split_type":[0,0,0,0,0,0,0,0,0,0,0,0,0,0,0,0,0,0,0,0,0,0,0,0,0],"sum_hessian":[3.223347E2,2.0043167E2,1.21903E2,1.7901218E2,2.1419502E1,4.259867E1,7.930433E1,9.388224E0,1.6962395E2,1.992949E1,1.4900136E0,2.2300638E1,2.029803E1,7.734106E1,1.9632685E0,3.4145377E0,5.9736857E0,1.6092207E2,8.701881E0,1.6874626E1,5.426013E0,2.3609562E0,1.7937075E1,1.974216E0,7.5366844E1],"tree_param":{"num_deleted":"0","num_feature":"11","num_nodes":"25","size_leaf_vector":"1"}},{"base_weights":[4.1371137E-3,-4.8115048E-1,7.798445E-1,4.79674E-2,-6.3402957E-1,8.224381E-2,9.142337E-1,-7.206918E-1,3.517294E-1,-5.077237E-1,8.671409E-1,6.628501E-1,5.1221963E-2,-3.7059154E-2,4.966009E-3,-3.381004E-2,4.109912E-2,-3.5396963E-2,6.2982487E-3,4.703615E-2,1.3982688E-2,6.378831E-3,4.903418E-2],"categories":[],"categories_nodes":[],"categories_segments":[],"categories_sizes":[],"default_left":[0,0,0,0,0,0,0,0,0,0,0,0,0,0,0,0,0,0,0,0,0,0,0],"id":7,"left_children":[1,3,5,-1,7,9,11,13,15,17,19,21,-1,-1,-1,-1,-1,-1,-1,-1,-1,-1,-1],"loss_changes":[1.2124009E2,4.424035E1,1.1544624E1,0E0,1.5606644E1,1.0219855E1,2.197319E0,2.8549423E0,7.900988E0,1.6988969E0,1.4464521E-1,5.7404127E0,0E0,0E0,0E0,0E0,0E0,0E0,0E0,0E0,0E0,0E0,0E0],"parents":[2147483647,0,0,1,1,2,2,4,4,5,5,6,6,7,7,8,8,9,9,10,10,11,11],"right_children":[2,4,6,-1,8,10,12,14,16,18,20,22,-1,-1,-1,-1,-1,-1,-1,-1,-1,-1,-1],"split_conditions":[2.41E1,1.85E1,6.9E0,4.79674E-2,1E0,1E0,1E0,8E0,2.22E1,1E0,7.9E1,7.9E0,5.1221963E-2,-3.7059154E-2,4.966009E-3,-3.381004E-2,4.109912E-2,-3.5396963E-2,6.2982487E-3,4.703615E-2,1.3982688E-2,6.378831E-3,4.903418E-2],"split_indices":[5,5,3,0,7,7,9,3,5,9,2,3,0,0,0,0,0,0,0,0,0,0,0],"split_type":[0,0,0,0,0,0,0,0,0,0,0,0,0,0,0,0,0,0,0,0,0,0,0],"sum_hessian":[3.200724E2,1.9712773E2,1.22944664E2,1.8407585E1,1.7872014E2,2.0119308E1,1.02825356E2,1.6452495E2,1.4195195E1,1.1687522E1,8.431787E0,3.3477158E1,6.934819E1,1.6060767E2,3.9172878E0,4.3181534E0,9.877042E0,8.792376E0,2.8951468E0,6.9589243E0,1.4728621E0,1.2994352E1,2.0482805E1],"tree_param":{"num_deleted":"0","num_feature":"11","num_nodes":"23","size_leaf_vector":"1"}},{"base_weights":[-1.4141927E-2,4.434971E-1,-7.433245E-1,6.069965E-1,-8.353506E-1,-3.6546195E-1,-9.4563293E-1,-6.717882E-1,6.8489975E-1,-4.3339595E-2,-1.1779542E-2,1.533792E-1,-8.757466E-1,-5.037144E-1,-4.872274E-2,-1.0240602E-2,-4.360987E-2,3.690673E-2,-2.0071634E-3,2.6645139E-2,-4.4297215E-2,-1.6781235E-2,-4.7008052E-2,9.602472E-3,-4.031652E-2],"categories":[],"categories_nodes":[],"categories_segments":[],"categories_sizes":[],"default_left":[0,0,0,0,0,0,0,0,0,0,0,0,0,0,0,0,0,0,0,0,0,0,0,0,0],"id":8,"left_children":[1,3,5,7,9,11,13,15,17,-1,-1,19,21,23,-1,-1,-1,-1,-1,-1,-1,-1,-1,-1,-1],"loss_changes":[1.05596794E2,4.1162655E1,8.981606E0,1.7692444E1,2.193613E-1,1.18302555E1,5.132828E-1,7.981725E-1,6.3418884E0,0E0,0E0,9.447937E0,4.6451187E-1,1.6069939E0,0E0,0E0,0E0,0E0,0E0,0E0,0E0,0E0,0E0,0E0,0E0],"parents":[2147483647,0,0,1,1,2,2,3,3,4,4,5,5,6,6,7,7,8,8,11,11,12,12,13,13],"right_children":[2,4,6,8,10,12,14,16,18,-1,-1,20,22,24,-1,-1,-1,-1,-1,-1,-1,-1,-1,-1,-1],"split_conditions":[2.41E1,8.1E1,1E0,1.85E1,4E1,1E0,2.45E1,1E0,1E0,-4.3339595E-2,-1.1779542E-2,2.93E1,2.4E1,7.7E1,-4.872274E-2,-1.0240602E-2,-4.360987E-2,3.690673E-2,-2.0071634E-3,2.6645139E-2,-4.4297215E-2,-1.6781235E-2,-4.7008052E-2,9.602472E-3,-4.031652E-2],"split_indices":[5,10,9,5,0,7,5,9,7,0,0,5,0,10,0,0,0,0,0,0,0,0,0,0,0],"split_type":[0,0,0,0,0,0,0,0,0,0,0,0,0,0,0,0,0,0,0,0,0,0,0,0,0],"sum_hessian":[3.1445212E2,1.9343993E2,1.21012184E2,1.7197806E2,2.1461864E1,4.3176163E1,7.783602E1,9.437519E0,1.6254054E2,1.9969753E1,1.4921105E0,2.1755394E1,2.1420769E1,5.896906E0,7.193911E1,3.4411695E0,5.9963493E0,1.5140582E2,1.1134727E1,1.6293028E1,5.462368E0,2.9441504E0,1.8476618E1,1.8981401E0,3.9987657E0],"tree_param":{"num_deleted":"0","num_feature":"11","num_nodes":"25","size_leaf_vector":"1"}},{"base_weights":[-2.4579683E-2,-4.9057516E-1,7.2486466E-1,-6.4314634E-1,8.202429E-1,3.6459655E-1,4.829183E-2,5.8970743E-1,-7.0225245E-1,8.532712E-1,1.1982542E-2,-1.822992E-1,8.520856E-1,4.9731974E-3,4.1699436E-2,-3.5379518E-2,-7.1773715E-3,1.3151586E-2,4.4413056E-2,-2.3230782E-2,2.5541816E-2,1.3549025E-2,4.855746E-2],"categories":[],"categories_nodes":[],"categories_segments":[],"categories_sizes":[],"default_left":[0,0,0,0,0,0,0,0,0,0,0,0,0,0,0,0,0,0,0,0,0,0,0],"id":9,"left_children":[1,3,5,7,9,11,-1,13,15,17,-1,19,21,-1,-1,-1,-1,-1,-1,-1,-1,-1,-1],"loss_changes":[1.0878091E2,3.893196E1,1.0016468E1,1.2989052E1,1.8785572E-1,1.3345529E1,0E0,9.2761135E-1,3.9089203E-1,1.5810299E-1,0E0,4.961207E0,1.5588627E0,0E0,0E0,0E0,0E0,0E0,0E0,0E0,0E0,0E0,0E0],"parents":[2147483647,0,0,1,1,2,2,3,3,4,4,5,5,7,7,8,8,9,9,11,11,12,12],"right_children":[2,4,6,8,10,12,-1,14,16,18,-1,20,22,-1,-1,-1,-1,-1,-1,-1,-1,-1,-1],"split_conditions":[2.41E1,8.1E1,7.9E0,1.85E1,1.4E1,1E0,4.829183E-2,1E0,1.5E2,4.9E0,1.1982542E-2,7.8E1,2.45E1,4.9731974E-3,4.1699436E-2,-3.5379518E-2,-7.1773715E-3,1.3151586E-2,4.4413056E-2,-2.3230782E-2,2.5541816E-2,1.3549025E-2,4.855746E-2],"split_indices":[5,10,3,5,3,9,0,9,1,3,0,10,5,0,0,0,0,0,0,0,0,0,0],"split_type":[0,0,0,0,0,0,0,0,0,0,0,0,0,0,0,0,0,0,0,0,0,0,0],"sum_hessian":[3.094628E2,1.9102881E2,1.18434E2,1.7156862E2,1.946018E1,4.847454E1,6.995945E1,7.4384274E0,1.6413019E2,1.7968351E1,1.4918294E0,2.3140324E1,2.5334219E1,2.9417846E0,4.496643E0,1.6231297E2,1.8172269E0,1.4822271E0,1.6486124E1,1.6677296E1,6.4630284E0,4.8651524E0,2.0469067E1],"tree_param":{"num_deleted":"0","num_feature":"11","num_nodes":"23","size_leaf_vector":"1"}},{"base_weights":[-7.53075E-4,4.0124547E-1,-8.289024E-1,6.166524E-1,-4.6863787E-2,-3.6006466E-1,-4.544712E-2,7.0559764E-1,-3.2840836E-1,-8.229722E-1,3.3500038E-2,3.6056645E-2,-1.35915745E-2,1.3341199E-2,-4.2838536E-2,-1.2316228E-2,-4.4074386E-2],"categories":[],"categories_nodes":[],"categories_segments":[],"categories_sizes":[],"default_left":[0,0,0,0,0,0,0,0,0,0,0,0,0,0,0,0,0],"id":10,"left_children":[1,3,5,7,-1,9,-1,11,13,15,-1,-1,-1,-1,-1,-1,-1],"loss_changes":[1.0511918E2,6.1867695E1,3.5447998E0,1.5673866E1,0E0,8.515736E0,0E0,2.7504196E0,5.4130673E0,1.868639E-1,0E0,0E0,0E0,0E0,0E0,0E0,0E0],"parents":[2147483647,0,0,1,1,2,2,3,3,5,5,7,7,8,8,9,9],"right_children":[2,4,6,8,-1,10,-1,12,14,16,-1,-1,-1,-1,-1,-1,-1],"split_conditions":[1E0,1E0,2.22E1,2.5E1,-4.6863787E-2,1.81E1,-4.544712E-2,1E0,1E0,1.68E1,3.3500038E-2,3.6056645E-2,-1.35915745E-2,1.3341199E-2,-4.2838536E-2,-1.2316228E-2,-4.4074386E-2],"split_indices":[7,8,5,5,0,5,0,6,9,5,0,0,0,0,0,0,0],"split_type":[0,0,0,0,0,0,0,0,0,0,0,0,0,0,0,0,0],"sum_hessian":[3.1375494E2,2.1157037E2,1.0218457E2,1.8270685E2,2.8863533E1,1.5702867E1,8.6481705E1,1.6722198E2,1.5484858E1,1.0972786E1,4.7300806E0,1.6486385E2,2.3581367E0,7.5144124E0,7.9704456E0,1.4908278E0,9.481958E0],"tree_param":{"num_deleted":"0","num_feature":"11","num_nodes":"17","size_leaf_vector":"1"}},{"base_weights":[1.5186272E-2,-3.8202786E-1,8.341608E-1,-5.936489E-1,6.8911725E-1,3.7282196E-1,4.5419957E-2,6.6824204E-1,-6.577277E-1,2.738639E-1,4.541036E-2,8.116176E-1,-3.2814473E-2,4.1163992E-2,9.28993E-3,-3.4561023E-2,1.7990984E-2,-7.848436E-3,4.2198382E-2,1.1304761E-2,4.382695E-2],"categories":[],"categories_nodes":[],"categories_segments":[],"categories_sizes":[],"default_left":[0,0,0,0,0,0,0,0,0,0,0,0,0,0,0,0,0,0,0,0,0],"id":11,"left_children":[1,3,5,7,9,11,-1,13,15,17,-1,19,-1,-1,-1,-1,-1,-1,-1,-1,-1],"loss_changes":[1.0081679E2,4.772084E1,3.127777E0,1.4575802E1,2.9260025E0,7.633866E0,0E0,5.160601E-1,5.9360123E0,3.4444096E0,0E0,2.3789978E-1,0E0,0E0,0E0,0E0,0E0,0E0,0E0,0E0,0E0],"parents":[2147483647,0,0,1,1,2,2,3,3,4,4,5,5,7,7,8,8,9,9,11,11],"right_children":[2,4,6,8,10,12,-1,14,16,18,-1,20,-1,-1,-1,-1,-1,-1,-1,-1,-1],"split_conditions":[1E0,2.5E1,2.22E1,1.85E1,1E0,1.84E1,4.5419957E-2,1.8E1,8.1E1,2.93E1,4.541036E-2,5.2E0,-3.2814473E-2,4.1163992E-2,9.28993E-3,-3.4561023E-2,1.7990984E-2,-7.848436E-3,4.2198382E-2,1.1304761E-2,4.382695E-2],"split_indices":[7,5,5,5,9,5,0,5,10,5,0,3,0,0,0,0,0,0,0,0,0],"split_type":[0,0,0,0,0,0,0,0,0,0,0,0,0,0,0,0,0,0,0,0,0],"sum_hessian":[3.0793192E2,2.0771889E2,1.0021304E2,1.7382323E2,3.389565E1,1.4725616E1,8.548743E1,7.9445395E0,1.658787E2,1.2484014E1,2.1411636E1,1.0471912E1,4.253704E0,5.477738E0,2.4668014E0,1.6090324E2,4.975456E0,7.523273E0,4.9607406E0,1.4926223E0,8.97929E0],"tree_param":{"num_deleted":"0","num_feature":"11","num_nodes":"21","size_leaf_vector":"1"}},{"base_weights":[2.1999748E-3,3.8693735E-1,-7.748259E-1,5.987692E-1,-4.5026388E-2,-2.937628E-1,-4.294541E-2,6.7796826E-1,-3.0089638E-1,-7.7911675E-1,3.309668E-2,3.4947913E-2,-1.2888412E-2,2.0258421E-2,-4.1031662E-2,-1.0397919E-2,-4.218719E-2],"categories":[],"categories_nodes":[],"categories_segments":[],"categories_sizes":[],"default_left":[0,0,0,0,0,0,0,0,0,0,0,0,0,0,0,0,0],"id":12,"left_children":[1,3,5,7,-1,9,-1,11,13,15,-1,-1,-1,-1,-1,-1,-1],"loss_changes":[9.122911E1,5.6202652E1,3.8355064E0,1.2734783E1,0E0,8.195098E0,0E0,3.3608932E0,5.8082457E0,2.4677658E-1,0E0,0E0,0E0,0E0,0E0,0E0,0E0],"parents":[2147483647,0,0,1,1,2,2,3,3,5,5,7,7,8,8,9,9],"right_children":[2,4,6,8,-1,10,-1,12,14,16,-1,-1,-1,-1,-1,-1,-1],"split_conditions":[1E0,1E0,2.22E1,2.5E1,-4.5026388E-2,1.84E1,-4.294541E-2,1E0,1E0,1.7E1,3.309668E-2,3.4947913E-2,-1.2888412E-2,2.0258421E-2,-4.1031662E-2,-1.0397919E-2,-4.218719E-2],"split_indices":[7,8,5,5,0,5,0,6,9,5,0,0,0,0,0,0,0],"split_type":[0,0,0,0,0,0,0,0,0,0,0,0,0,0,0,0,0],"sum_hessian":[3.0316138E2,2.0310017E2,1.00061195E2,1.7486401E2,2.8236164E1,1.5555694E1,8.45055E1,1.609424E2,1.3921608E1,1.0438983E1,5.1167107E0,1.5765892E2,3.2834864E0,5.996191E0,7.9254165E0,1.4898523E0,8.94913E0],"tree_param":{"num_deleted":"0","num_feature":"11","num_nodes":"17","size_leaf_vector":"1"}},{"base_weights":[-3.4937619E-3,-3.854536E-1,7.944513E-1,-6.280473E-1,4.194508E-1,3.9525586E-1,8.639852E-1,-6.7376256E-1,3.9682996E-2,1.3092093E-3,4.389618E-2,7.95291E-1,-3.1972427E-2,1.1895526E-2,4.361898E-2,3.2055516E-2,-3.4741588E-2,-1.36932805E-2,4.062197E-2,1.0790153E-2,4.2732336E-2],"categories":[],"categories_nodes":[],"categories_segments":[],"categories_sizes":[],"default_left":[0,0,0,0,0,0,0,0,0,0,0,0,0,0,0,0,0,0,0,0,0],"id":13,"left_children":[1,3,5,7,9,11,13,15,-1,17,-1,19,-1,-1,-1,-1,-1,-1,-1,-1,-1],"loss_changes":[9.38045E1,4.0904945E1,2.4241219E0,1.0955387E1,9.3545885E0,7.3893485E0,2.3397446E-1,4.7638245E0,0E0,6.1430235E0,0E0,2.432518E-1,0E0,0E0,0E0,0E0,0E0,0E0,0E0,0E0,0E0],"parents":[2147483647,0,0,1,1,2,2,3,3,4,4,5,5,6,6,7,7,9,9,11,11],"right_children":[2,4,6,8,10,12,14,16,-1,18,-1,20,-1,-1,-1,-1,-1,-1,-1,-1,-1],"split_conditions":[1E0,1E0,2.22E1,2.93E1,2.45E1,1.84E1,1.8E1,1.8E1,3.9682996E-2,8.1E1,4.389618E-2,5.2E0,-3.1972427E-2,1.1895526E-2,4.361898E-2,3.2055516E-2,-3.4741588E-2,-1.36932805E-2,4.062197E-2,1.0790153E-2,4.2732336E-2],"split_indices":[7,9,5,5,5,5,0,5,0,10,0,3,0,0,0,0,0,0,0,0,0],"split_type":[0,0,0,0,0,0,0,0,0,0,0,0,0,0,0,0,0,0,0,0,0],"sum_hessian":[3.0577002E2,2.0713548E2,9.863454E1,1.593331E2,4.7802387E1,1.5623578E1,8.3010956E1,1.5487901E2,4.454074E0,2.5525335E1,2.227705E1,1.1434269E1,4.1893086E0,1.4864955E0,8.152446E1,1.9784746E0,1.5290054E2,1.9554024E1,5.9713116E0,1.4930845E0,9.941185E0],"tree_param":{"num_deleted":"0","num_feature":"11","num_nodes":"21","size_leaf_vector":"1"}},{"base_weights":[-1.6094466E-4,4.1252124E-1,-6.545069E-1,5.675309E-1,-7.4364215E-1,-3.2922623E-1,-4.287846E-2,-5.844375E-1,6.379098E-1,-7.7226865E-1,-1.0309016E-2,1.8199685E-1,-7.167674E-1,-8.7894155E-3,-3.875118E-2,3.452846E-2,-2.1092545E-3,-1.1613314E-2,-4.0094595E-2,1.7034529E-2,-3.5144005E-2,-1.9845769E-2,-4.201297E-2],"categories":[],"categories_nodes":[],"categories_segments":[],"categories_sizes":[],"default_left":[0,0,0,0,0,0,0,0,0,0,0,0,0,0,0,0,0,0,0,0,0,0,0],"id":14,"left_children":[1,3,5,7,9,11,-1,13,15,17,-1,19,21,-1,-1,-1,-1,-1,-1,-1,-1,-1,-1],"loss_changes":[8.098101E1,3.3380737E1,7.3786926E0,1.3566048E1,1.8194103E-1,9.283659E0,0E0,6.341274E-1,5.538616E0,1.4469814E-1,0E0,3.1488867E0,7.1248627E-1,0E0,0E0,0E0,0E0,0E0,0E0,0E0,0E0,0E0,0E0],"parents":[2147483647,0,0,1,1,2,2,3,3,4,4,5,5,7,7,8,8,9,9,11,11,12,12],"right_children":[2,4,6,8,10,12,-1,14,16,18,-1,20,22,-1,-1,-1,-1,-1,-1,-1,-1,-1,-1],"split_conditions":[2.41E1,8.1E1,7.9E0,1.85E1,1.4E1,7.7E1,-4.287846E-2,1E0,1E0,4.9E0,-1.0309016E-2,1E0,1E0,-8.7894155E-3,-3.875118E-2,3.452846E-2,-2.1092545E-3,-1.1613314E-2,-4.0094595E-2,1.7034529E-2,-3.5144005E-2,-1.9845769E-2,-4.201297E-2],"split_indices":[5,10,3,5,3,10,0,9,7,3,0,8,9,0,0,0,0,0,0,0,0,0,0],"split_type":[0,0,0,0,0,0,0,0,0,0,0,0,0,0,0,0,0,0,0,0,0,0,0],"sum_hessian":[2.978888E2,1.829044E2,1.14984375E2,1.6173E2,2.117441E1,4.5200333E1,6.978404E1,8.891361E0,1.5283864E2,1.9688854E1,1.485556E0,1.9718779E1,2.5481554E1,3.439291E0,5.4520707E0,1.418406E2,1.0998025E1,1.483672E0,1.8205183E1,1.724165E1,2.4771295E0,8.271625E0,1.720993E1],"tree_param":{"num_deleted":"0","num_feature":"11","num_nodes":"23","size_leaf_vector":"1"}},{"base_weights":[1.0020223E-2,-4.3347836E-1,6.515617E-1,-5.8113277E-1,7.315674E-1,5.9350654E-2,7.6689994E-1,5.666502E-1,-6.482853E-1,7.6191914E-1,1.0112753E-2,-4.8004276E-1,7.3292285E-1,5.2052027E-1,4.284611E-2,3.5362083E-2,1.0592225E-3,-3.4529187E-2,7.34651E-4,1.1613313E-2,3.9657563E-2,-3.3550423E-2,2.7743658E-2,4.0414732E-2,1.4243205E-2,-2.810511E-3,4.0718686E-2],"categories":[],"categories_nodes":[],"categories_segments":[],"categories_sizes":[],"default_left":[0,0,0,0,0,0,0,0,0,0,0,0,0,0,0,0,0,0,0,0,0,0,0,0,0,0,0],"id":15,"left_children":[1,3,5,7,9,11,13,15,17,19,-1,21,23,25,-1,-1,-1,-1,-1,-1,-1,-1,-1,-1,-1,-1,-1],"loss_changes":[8.662055E1,3.1392578E1,8.453693E0,1.2724762E1,1.7831707E-1,8.115081E0,1.8620491E0,7.0551825E-1,4.2707405E0,1.3351822E-1,0E0,2.83678E0,1.03999615E-1,5.196954E0,0E0,0E0,0E0,0E0,0E0,0E0,0E0,0E0,0E0,0E0,0E0,0E0,0E0],"parents":[2147483647,0,0,1,1,2,2,3,3,4,4,5,5,6,6,7,7,8,8,9,9,11,11,12,12,13,13],"right_children":[2,4,6,8,10,12,14,16,18,20,-1,22,24,26,-1,-1,-1,-1,-1,-1,-1,-1,-1,-1,-1,-1,-1],"split_conditions":[2.41E1,8.1E1,6.9E0,1.85E1,3.8E1,1E0,7.9E0,2.4E1,1E0,4.9E0,1.0112753E-2,1E0,2.49E1,7.7E1,4.284611E-2,3.5362083E-2,1.0592225E-3,-3.4529187E-2,7.34651E-4,1.1613313E-2,3.9657563E-2,-3.3550423E-2,2.7743658E-2,4.0414732E-2,1.4243205E-2,-2.810511E-3,4.0718686E-2],"split_indices":[5,10,3,5,0,7,3,0,7,3,0,8,5,10,0,0,0,0,0,0,0,0,0,0,0,0,0],"split_type":[0,0,0,0,0,0,0,0,0,0,0,0,0,0,0,0,0,0,0,0,0,0,0,0,0,0,0],"sum_hessian":[3.0244894E2,1.7901791E2,1.2343102E2,1.5932652E2,1.9691381E1,2.0367495E1,1.0306353E2,8.395246E0,1.5093127E2,1.8207857E1,1.4835235E0,1.1469829E1,8.897666E0,2.939505E1,7.366848E1,6.4390306E0,1.9562151E0,1.4184016E2,9.091122E0,1.4836719E0,1.6724186E1,9.979933E0,1.4898964E0,6.92822E0,1.9694464E0,1.0194857E1,1.9200193E1],"tree_param":{"num_deleted":"0","num_feature":"11","num_nodes":"27","size_leaf_vector":"1"}},{"base_weights":[-2.8259675E-3,4.282662E-1,-6.319293E-1,5.74929E-1,-7.396692E-1,-3.2193795E-1,-4.12446E-2,-5.7898945E-1,6.3334864E-1,-3.8690243E-2,-9.668044E-3,1.4525996E-1,-6.901446E-1,-2.8344772E-3,-3.7070774E-2,3.3841446E-2,-2.5311422E-3,1.9501342E-2,-1.9287458E-2,-3.7230153E-2,7.5869816E-3],"categories":[],"categories_nodes":[],"categories_segments":[],"categories_sizes":[],"default_left":[0,0,0,0,0,0,0,0,0,0,0,0,0,0,0,0,0,0,0,0,0],"id":16,"left_children":[1,3,5,7,9,11,-1,13,15,-1,-1,17,19,-1,-1,-1,-1,-1,-1,-1,-1],"loss_changes":[7.820449E1,2.9735838E1,6.7480164E0,1.0652771E1,2.1454048E-1,8.1208515E0,0E0,6.260617E-1,4.367611E0,0E0,0E0,2.928764E0,1.3164215E0,0E0,0E0,0E0,0E0,0E0,0E0,0E0,0E0],"parents":[2147483647,0,0,1,1,2,2,3,3,4,4,5,5,7,7,8,8,11,11,12,12],"right_children":[2,4,6,8,10,12,-1,14,16,-1,-1,18,20,-1,-1,-1,-1,-1,-1,-1,-1],"split_conditions":[2.41E1,8.1E1,7.9E0,1.85E1,4E1,7.7E1,-4.12446E-2,1E0,1E0,-3.8690243E-2,-9.668044E-3,1E0,3.4E1,-2.8344772E-3,-3.7070774E-2,3.3841446E-2,-2.5311422E-3,1.9501342E-2,-1.9287458E-2,-3.7230153E-2,7.5869816E-3],"split_indices":[5,10,3,5,0,10,0,9,7,0,0,9,0,0,0,0,0,0,0,0,0],"split_type":[0,0,0,0,0,0,0,0,0,0,0,0,0,0,0,0,0,0,0,0,0],"sum_hessian":[2.8636514E2,1.70114E2,1.1625114E2,1.5158636E2,1.8527632E1,4.5624527E1,7.062662E1,6.875184E0,1.4471118E2,1.7046093E1,1.4815375E0,2.0375996E1,2.524853E1,1.9508893E0,4.9242945E0,1.360715E2,8.63967E0,1.4128849E1,6.247147E0,2.3823053E1,1.4254763E0],"tree_param":{"num_deleted":"0","num_feature":"11","num_nodes":"21","size_leaf_vector":"1"}},{"base_weights":[-8.95851E-3,-3.5440144E-1,7.182982E-1,-5.7025737E-1,4.2026028E-2,3.1325555E-1,7.9364884E-1,-6.558393E-1,2.2750266E-1,7.352465E-1,-3.175875E-2,6.2425274E-1,4.2035352E-2,-3.359077E-2,7.788796E-3,-1.4757908E-2,3.772106E-2,9.769551E-3,3.971756E-2,1.6080296E-2,3.9936047E-2],"categories":[],"categories_nodes":[],"categories_segments":[],"categories_sizes":[],"default_left":[0,0,0,0,0,0,0,0,0,0,0,0,0,0,0,0,0,0,0,0,0],"id":17,"left_children":[1,3,5,7,-1,9,11,13,15,17,-1,19,-1,-1,-1,-1,-1,-1,-1,-1,-1],"loss_changes":[7.3134514E1,5.1381126E1,2.6126823E0,1.16019745E1,0E0,7.013595E0,1.00105286E-1,2.072342E0,4.902964E0,2.2078705E-1,0E0,8.481283E-1,0E0,0E0,0E0,0E0,0E0,0E0,0E0,0E0,0E0],"parents":[2147483647,0,0,1,1,2,2,3,3,5,5,6,6,7,7,8,8,9,9,11,11],"right_children":[2,4,6,8,-1,10,12,14,16,18,-1,20,-1,-1,-1,-1,-1,-1,-1,-1,-1],"split_conditions":[1E0,1E0,2.22E1,2.5E1,4.2026028E-2,1.84E1,7.7E1,1E0,1E0,5.2E0,-3.175875E-2,1.15E2,4.2035352E-2,-3.359077E-2,7.788796E-3,-1.4757908E-2,3.772106E-2,9.769551E-3,3.971756E-2,1.6080296E-2,3.9936047E-2],"split_indices":[7,8,5,5,0,5,10,6,9,3,0,1,0,0,0,0,0,0,0,0,0],"split_type":[0,0,0,0,0,0,0,0,0,0,0,0,0,0,0,0,0,0,0,0,0],"sum_hessian":[2.8909753E2,1.9634665E2,9.275089E1,1.6674744E2,2.9599215E1,1.5357093E1,7.73938E1,1.5075288E2,1.5994541E1,1.0783777E1,4.573315E0,1.9927168E1,5.746663E1,1.4801163E2,2.7412617E0,8.2505245E0,7.744016E0,1.489027E0,9.29475E0,8.326568E0,1.1600599E1],"tree_param":{"num_deleted":"0","num_feature":"11","num_nodes":"21","size_leaf_vector":"1"}},{"base_weights":[-8.070169E-3,3.495555E-1,-7.124232E-1,5.617846E-1,-4.1050624E-2,-3.300872E-1,-3.917041E-2,6.381075E-1,-2.7110592E-1,-7.2316074E-1,3.1385552E-2,3.288887E-2,-5.3889095E-3,1.6490016E-2,-3.064164E-2,-9.233978E-3,-3.8917452E-2],"categories":[],"categories_nodes":[],"categories_segments":[],"categories_sizes":[],"default_left":[0,0,0,0,0,0,0,0,0,0,0,0,0,0,0,0,0],"id":18,"left_children":[1,3,5,7,-1,9,-1,11,13,15,-1,-1,-1,-1,-1,-1,-1],"loss_changes":[7.380237E1,4.874057E1,2.4190826E0,1.0668541E1,0E0,6.9209795E0,0E0,2.2942772E0,3.192243E0,2.3200274E-1,0E0,0E0,0E0,0E0,0E0,0E0,0E0],"parents":[2147483647,0,0,1,1,2,2,3,3,5,5,7,7,8,8,9,9],"right_children":[2,4,6,8,-1,10,-1,12,14,16,-1,-1,-1,-1,-1,-1,-1],"split_conditions":[1E0,1E0,2.22E1,2.5E1,-4.1050624E-2,1.84E1,-3.917041E-2,8E0,7.7E1,5.2E0,3.1385552E-2,3.288887E-2,-5.3889095E-3,1.6490016E-2,-3.064164E-2,-9.233978E-3,-3.8917452E-2],"split_indices":[7,8,5,5,0,5,0,3,10,3,0,0,0,0,0,0,0],"split_type":[0,0,0,0,0,0,0,0,0,0,0,0,0,0,0,0,0],"sum_hessian":[2.910003E2,1.9333885E2,9.7661446E1,1.6410582E2,2.9233034E1,1.617742E1,8.148403E1,1.5054437E2,1.3561441E1,1.1643845E1,4.5335746E0,1.4679144E2,3.752935E0,4.9289966E0,8.632444E0,1.4864701E0,1.0157375E1],"tree_param":{"num_deleted":"0","num_feature":"11","num_nodes":"17","size_leaf_vector":"1"}},{"base_weights":[-2.9458152E-3,-3.4107473E-1,6.9728214E-1,-5.517555E-1,4.10848E-2,2.694022E-1,3.9049804E-2,-6.368944E-1,2.4683858E-1,7.116339E-1,-3.1894386E-2,-3.2921713E-2,1.7313993E-2,-1.3455982E-2,3.6971934E-2,9.233977E-3,3.852087E-2],"categories":[],"categories_nodes":[],"categories_segments":[],"categories_sizes":[],"default_left":[0,0,0,0,0,0,0,0,0,0,0,0,0,0,0,0,0],"id":19,"left_children":[1,3,5,7,-1,9,-1,11,13,15,-1,-1,-1,-1,-1,-1,-1],"loss_changes":[6.722075E1,4.735416E1,3.1012383E0,1.1218262E1,0E0,7.1365094E0,0E0,3.34721E0,4.365608E0,2.192111E-1,0E0,0E0,0E0,0E0,0E0,0E0,0E0],"parents":[2147483647,0,0,1,1,2,2,3,3,5,5,7,7,8,8,9,9],"right_children":[2,4,6,8,-1,10,-1,12,14,16,-1,-1,-1,-1,-1,-1,-1],"split_conditions":[1E0,1E0,2.22E1,2.5E1,4.10848E-2,1.84E1,3.9049804E-2,1E0,1E0,5.2E0,-3.1894386E-2,-3.2921713E-2,1.7313993E-2,-1.3455982E-2,3.6971934E-2,9.233977E-3,3.852087E-2],"split_indices":[7,8,5,5,0,5,0,6,9,3,0,0,0,0,0,0,0],"split_type":[0,0,0,0,0,0,0,0,0,0,0,0,0,0,0,0,0],"sum_hessian":[2.8190616E2,1.9045256E2,9.145359E1,1.6168294E2,2.8769615E1,1.5655104E1,7.579849E1,1.4628935E2,1.5393584E1,1.0669983E1,4.9851203E0,1.434763E2,2.8130484E0,7.740119E0,7.6534653E0,1.4864702E0,9.183513E0],"tree_param":{"num_deleted":"0","num_feature":"11","num_nodes":"17","size_leaf_vector":"1"}},{"base_weights":[-1.27489455E-2,3.8760993E-1,-5.910491E-1,-3.7692975E-2,5.2497935E-1,-2.729024E-1,-3.8529992E-2,6.131401E-1,-2.3670694E-1,1.6769068E-1,-3.8124252E-2,3.283751E-2,-3.544248E-2,3.1109257E-2,-3.2536082E-2,1.7050736E-2,-3.4160126E-2],"categories":[],"categories_nodes":[],"categories_segments":[],"categories_sizes":[],"default_left":[0,0,0,0,0,0,0,0,0,0,0,0,0,0,0,0,0],"id":20,"left_children":[1,3,5,-1,7,9,-1,11,13,15,-1,-1,-1,-1,-1,-1,-1],"loss_changes":[6.659625E1,2.7050367E1,6.5109177E0,0E0,1.0373405E1,9.618114E0,0E0,8.35207E0,6.2801704E0,3.7690182E0,0E0,0E0,0E0,0E0,0E0,0E0,0E0],"parents":[2147483647,0,0,1,1,2,2,4,4,5,5,7,7,8,8,9,9],"right_children":[2,4,6,-1,8,10,-1,12,14,16,-1,-1,-1,-1,-1,-1,-1],"split_conditions":[2.41E1,1.84E1,1E0,-3.7692975E-2,1E0,7.9E0,-3.8529992E-2,1E0,2.22E1,1E0,-3.8124252E-2,3.283751E-2,-3.544248E-2,3.1109257E-2,-3.2536082E-2,1.7050736E-2,-3.4160126E-2],"split_indices":[5,5,9,0,7,3,0,8,5,8,0,0,0,0,0,0,0],"split_type":[0,0,0,0,0,0,0,0,0,0,0,0,0,0,0,0,0],"sum_hessian":[2.8564902E2,1.6898793E2,1.166611E2,1.7670155E1,1.5131778E2,4.2996094E1,7.366501E1,1.3579527E2,1.5522499E1,2.2976337E1,2.0019754E1,1.3194583E2,3.8494477E0,4.885175E0,1.0637324E1,1.958597E1,3.3903675E0],"tree_param":{"num_deleted":"0","num_feature":"11","num_nodes":"17","size_leaf_vector":"1"}},{"base_weights":[3.8534775E-3,-3.855838E-1,5.889191E-1,7.066134E-1,-5.195416E-1,3.8268484E-2,6.903021E-1,8.43189E-3,3.7099E-2,-6.1331826E-1,2.6566067E-1,-4.4381908E-1,6.4874244E-1,4.556714E-1,3.9002642E-2,-3.2840367E-2,3.5442483E-2,-3.1109257E-2,3.3675585E-2,-3.186543E-2,2.4986178E-2,3.633013E-2,7.882549E-3,2.7757837E-3,3.6650255E-2],"categories":[],"categories_nodes":[],"categories_segments":[],"categories_sizes":[],"default_left":[0,0,0,0,0,0,0,0,0,0,0,0,0,0,0,0,0,0,0,0,0,0,0,0,0],"id":21,"left_children":[1,3,5,7,9,11,13,-1,-1,15,17,19,21,23,-1,-1,-1,-1,-1,-1,-1,-1,-1,-1,-1],"loss_changes":[6.503487E1,2.5440332E1,6.3413925E0,2.3915672E-1,1.144553E1,5.8190947E0,1.6718254E0,0E0,0E0,8.35347E0,6.591256E0,2.3440669E0,2.1807194E-1,3.1821733E0,0E0,0E0,0E0,0E0,0E0,0E0,0E0,0E0,0E0,0E0,0E0],"parents":[2147483647,0,0,1,1,2,2,3,3,4,4,5,5,6,6,9,9,10,10,11,11,12,12,13,13],"right_children":[2,4,6,8,10,12,14,-1,-1,16,18,20,22,24,-1,-1,-1,-1,-1,-1,-1,-1,-1,-1,-1],"split_conditions":[2.41E1,1.84E1,6.9E0,1.6E1,1E0,1E0,7.9E0,8.43189E-3,3.7099E-2,1E0,2.22E1,1E0,7.9E1,1E0,3.9002642E-2,-3.2840367E-2,3.5442483E-2,-3.1109257E-2,3.3675585E-2,-3.186543E-2,2.4986178E-2,3.633013E-2,7.882549E-3,2.7757837E-3,3.6650255E-2],"split_indices":[5,5,3,5,7,7,3,0,0,8,5,8,2,9,0,0,0,0,0,0,0,0,0,0,0],"split_type":[0,0,0,0,0,0,0,0,0,0,0,0,0,0,0,0,0,0,0,0,0,0,0,0,0],"sum_hessian":[2.834364E2,1.7037238E2,1.1306402E2,1.8146206E1,1.5222617E2,1.7794205E1,9.526981E1,1.4751618E0,1.6671043E1,1.36181E2,1.6045174E1,1.0095133E1,7.699072E0,2.8040947E1,6.722887E1,1.3233154E2,3.8494475E0,4.885175E0,1.1159999E1,8.646565E0,1.4485673E0,6.2315273E0,1.4675447E0,1.197E1,1.6070946E1],"tree_param":{"num_deleted":"0","num_feature":"11","num_nodes":"25","size_leaf_vector":"1"}},{"base_weights":[-8.509043E-3,3.8345534E-1,-5.826938E-1,5.4421645E-1,-4.5581782E-1,-3.5260677E-2,-6.844026E-1,6.3919425E-1,-3.7089832E-2,-2.634151E-1,-6.5383387E-1,4.9672297E-1,-6.424517E-1,3.775744E-3,-7.082657E-1,3.227631E-2,4.341531E-3,-3.303615E-2,2.9869182E-2,-2.722014E-3,-3.958149E-2,3.1311877E-2,-1.0892552E-2,-3.622058E-2,-1.0785832E-2,2.045554E-2,-1.6064573E-2,-2.6471931E-2,-3.7930284E-2],"categories":[],"categories_nodes":[],"categories_segments":[],"categories_sizes":[],"default_left":[0,0,0,0,0,0,0,0,0,0,0,0,0,0,0,0,0,0,0,0,0,0,0,0,0,0,0,0,0],"id":22,"left_children":[1,3,5,7,9,11,13,15,-1,17,19,21,23,25,27,-1,-1,-1,-1,-1,-1,-1,-1,-1,-1,-1,-1,-1,-1],"loss_changes":[6.1865086E1,2.2291225E1,6.1847916E0,1.7277164E1,8.491192E-1,6.3034487E0,1.546135E0,3.9387894E-1,0E0,5.6175413E0,9.923444E-1,1.1025074E0,1.6157627E-1,6.7753416E-1,4.161415E-1,0E0,0E0,0E0,0E0,0E0,0E0,0E0,0E0,0E0,0E0,0E0,0E0,0E0,0E0],"parents":[2147483647,0,0,1,1,2,2,3,3,4,4,5,5,6,6,7,7,9,9,10,10,11,11,12,12,13,13,14,14],"right_children":[2,4,6,8,10,12,14,16,-1,18,20,22,24,26,28,-1,-1,-1,-1,-1,-1,-1,-1,-1,-1,-1,-1,-1,-1],"split_conditions":[2.41E1,1E0,6.9E0,1E0,2.22E1,1E0,2E1,1.5E2,-3.7089832E-2,1.84E1,6.3E1,9.5E1,2.49E1,2.62E1,7.9E0,3.227631E-2,4.341531E-3,-3.303615E-2,2.9869182E-2,-2.722014E-3,-3.958149E-2,3.1311877E-2,-1.0892552E-2,-3.622058E-2,-1.0785832E-2,2.045554E-2,-1.6064573E-2,-2.6471931E-2,-3.7930284E-2],"split_indices":[5,7,3,8,5,7,0,1,0,5,2,2,5,5,3,0,0,0,0,0,0,0,0,0,0,0,0,0,0],"split_type":[0,0,0,0,0,0,0,0,0,0,0,0,0,0,0,0,0,0,0,0,0,0,0,0,0,0,0,0,0],"sum_hessian":[2.7288986E2,1.6237651E2,1.1051334E2,1.3656863E2,2.5807888E1,1.7526434E1,9.298691E1,1.2764448E2,8.92415E0,1.4271359E1,1.1536528E1,9.438729E0,8.087705E0,3.144548E0,8.984236E1,1.2603108E2,1.6133943E0,9.923518E0,4.3478413E0,2.4171834E0,9.119345E0,8.09513E0,1.3435987E0,6.199453E0,1.8882517E0,1.2844235E0,1.8601245E0,2.2265148E1,6.757722E1],"tree_param":{"num_deleted":"0","num_feature":"11","num_nodes":"29","size_leaf_vector":"1"}},{"base_weights":[7.572426E-3,-3.9109883E-1,5.827145E-1,-5.395698E-1,6.8347365E-1,5.528457E-2,6.767666E-1,5.472565E-1,-6.005592E-1,8.195739E-3,7.144208E-1,-4.260191E-1,6.340364E-1,4.447253E-1,3.7935328E-2,1.0167568E-2,3.4565035E-2,-3.2133203E-2,1.7802764E-5,1.565116E-2,3.763331E-2,-3.1173065E-2,2.4232967E-2,3.5965376E-2,1.0785832E-2,-1.4158225E-3,3.8193792E-2],"categories":[],"categories_nodes":[],"categories_segments":[],"categories_sizes":[],"default_left":[0,0,0,0,0,0,0,0,0,0,0,0,0,0,0,0,0,0,0,0,0,0,0,0,0,0,0],"id":23,"left_children":[1,3,5,7,9,11,13,15,17,-1,19,21,23,25,-1,-1,-1,-1,-1,-1,-1,-1,-1,-1,-1,-1,-1],"loss_changes":[6.297475E1,2.624992E1,5.539936E0,9.813156E0,2.0662689E-1,5.3131E0,1.4751244E0,2.6197338E-1,3.4402237E0,0E0,5.1538467E-2,2.1869478E0,1.523776E-1,4.142334E0,0E0,0E0,0E0,0E0,0E0,0E0,0E0,0E0,0E0,0E0,0E0,0E0,0E0],"parents":[2147483647,0,0,1,1,2,2,3,3,4,4,5,5,6,6,7,7,8,8,10,10,11,11,12,12,13,13],"right_children":[2,4,6,8,10,12,14,16,18,-1,20,22,24,26,-1,-1,-1,-1,-1,-1,-1,-1,-1,-1,-1,-1,-1],"split_conditions":[2.41E1,8.1E1,6.9E0,1.85E1,5E0,1E0,7.9E0,9.9E1,1E0,8.195739E-3,8.3E1,1E0,2.49E1,1E0,3.7935328E-2,1.0167568E-2,3.4565035E-2,-3.2133203E-2,1.7802764E-5,1.565116E-2,3.763331E-2,-3.1173065E-2,2.4232967E-2,3.5965376E-2,1.0785832E-2,-1.4158225E-3,3.8193792E-2],"split_indices":[5,10,3,5,3,7,3,4,7,0,10,8,5,9,0,0,0,0,0,0,0,0,0,0,0,0,0],"split_type":[0,0,0,0,0,0,0,0,0,0,0,0,0,0,0,0,0,0,0,0,0,0,0,0,0,0,0],"sum_hessian":[2.7265405E2,1.612207E2,1.11433365E2,1.420868E2,1.9133898E1,1.7104078E1,9.4329285E1,7.1261635E0,1.3496063E2,1.4295979E0,1.77043E1,9.4822855E0,7.6217923E0,2.6294569E1,6.803471E1,2.815616E0,4.310548E0,1.2605851E2,8.902126E0,2.3391168E0,1.5365182E1,8.051949E0,1.4303373E0,5.733541E0,1.8882517E0,1.096042E1,1.5334149E1],"tree_param":{"num_deleted":"0","num_feature":"11","num_nodes":"27","size_leaf_vector":"1"}},{"base_weights":[1.325262E-2,3.971685E-1,-5.484476E-1,-6.5183634E-1,5.1595956E-1,-4.3977015E-3,-6.489324E-1,-7.0009283E-3,-6.9165975E-1,5.977675E-1,-2.1951471E-1,4.3338376E-1,-6.0416126E-1,-4.3366805E-1,-3.686841E-2,-3.6709253E-2,-1.5920874E-2,3.1774707E-2,-3.2970965E-2,2.9527634E-2,-2.9617025E-2,3.090463E-2,-2.3994239E-2,-3.4520905E-2,-1.0461754E-2,-3.760557E-3,-3.4554638E-2],"categories":[],"categories_nodes":[],"categories_segments":[],"categories_sizes":[],"default_left":[0,0,0,0,0,0,0,0,0,0,0,0,0,0,0,0,0,0,0,0,0,0,0,0,0,0,0],"id":24,"left_children":[1,3,5,7,9,11,13,-1,15,17,19,21,23,25,-1,-1,-1,-1,-1,-1,-1,-1,-1,-1,-1,-1,-1],"loss_changes":[5.831321E1,2.0349829E1,5.9995613E0,2.4515009E-1,8.845116E0,5.020658E0,1.4444275E0,0E0,9.290218E-3,6.613285E0,4.9489474E0,2.1621864E0,1.3027787E-1,2.6621656E0,0E0,0E0,0E0,0E0,0E0,0E0,0E0,0E0,0E0,0E0,0E0,0E0,0E0],"parents":[2147483647,0,0,1,1,2,2,3,3,4,4,5,5,6,6,8,8,9,9,10,10,11,11,12,12,13,13],"right_children":[2,4,6,8,10,12,14,-1,16,18,20,22,24,26,-1,-1,-1,-1,-1,-1,-1,-1,-1,-1,-1,-1,-1],"split_conditions":[2.41E1,1.84E1,6.9E0,1.6E1,1E0,1E0,7.9E0,-7.0009283E-3,1.79E1,1E0,2.22E1,1E0,2.49E1,1E0,-3.686841E-2,-3.6709253E-2,-1.5920874E-2,3.1774707E-2,-3.2970965E-2,2.9527634E-2,-2.9617025E-2,3.090463E-2,-2.3994239E-2,-3.4520905E-2,-1.0461754E-2,-3.760557E-3,-3.4554638E-2],"split_indices":[5,5,3,5,7,7,3,0,5,8,5,8,5,9,0,0,0,0,0,0,0,0,0,0,0,0,0],"split_type":[0,0,0,0,0,0,0,0,0,0,0,0,0,0,0,0,0,0,0,0,0,0,0,0,0,0,0],"sum_hessian":[2.6840213E2,1.5960606E2,1.0879606E2,1.5779067E1,1.43827E2,1.7124342E1,9.1671715E1,1.4651148E0,1.4313952E1,1.2959877E2,1.4228232E1,1.0059261E1,7.065081E0,2.8413424E1,6.325829E1,1.1981764E1,2.3321881E0,1.2630308E2,3.2956898E0,4.3004093E0,9.927823E0,8.635864E0,1.4233978E0,5.1845007E0,1.8805807E0,1.2416271E1,1.5997152E1],"tree_param":{"num_deleted":"0","num_feature":"11","num_nodes":"27","size_leaf_vector":"1"}},{"base_weights":[6.550208E-3,-3.307337E-1,6.5134805E-1,-5.270128E-1,3.785957E-2,2.46196E-1,7.150641E-1,-6.104902E-1,2.140272E-1,6.158198E-1,-2.8938044E-2,1.4475065E-2,3.6109928E-2,-3.1612314E-2,1.1874201E-2,-1.0082841E-2,3.3702474E-2,4.039366E-3,3.4603465E-2],"categories":[],"categories_nodes":[],"categories_segments":[],"categories_sizes":[],"default_left":[0,0,0,0,0,0,0,0,0,0,0,0,0,0,0,0,0,0,0],"id":25,"left_children":[1,3,5,7,-1,9,11,13,15,17,-1,-1,-1,-1,-1,-1,-1,-1,-1],"loss_changes":[5.8511967E1,3.812205E1,2.209156E0,9.42495E0,0E0,4.650107E0,3.1734467E-2,2.6461487E0,3.1863325E0,3.6056447E-1,0E0,0E0,0E0,0E0,0E0,0E0,0E0,0E0,0E0],"parents":[2147483647,0,0,1,1,2,2,3,3,5,5,6,6,7,7,8,8,9,9],"right_children":[2,4,6,8,-1,10,12,14,16,18,-1,-1,-1,-1,-1,-1,-1,-1,-1],"split_conditions":[1E0,1E0,2.22E1,2.5E1,3.785957E-2,1.84E1,1.8E1,1E0,1E0,1.7E1,-2.8938044E-2,1.4475065E-2,3.6109928E-2,-3.1612314E-2,1.1874201E-2,-1.0082841E-2,3.3702474E-2,4.039366E-3,3.4603465E-2],"split_indices":[7,8,5,5,0,5,0,6,9,5,0,0,0,0,0,0,0,0,0],"split_type":[0,0,0,0,0,0,0,0,0,0,0,0,0,0,0,0,0,0,0],"sum_hessian":[2.6705484E2,1.7565793E2,9.139691E1,1.4924696E2,2.6410967E1,1.308121E1,7.83157E1,1.3429495E2,1.4952013E1,9.208731E0,3.87248E0,1.9768429E0,7.633886E1,1.3118364E2,3.1113124E0,8.149563E0,6.8024497E0,1.4055667E0,7.8031635E0],"tree_param":{"num_deleted":"0","num_feature":"11","num_nodes":"19","size_leaf_vector":"1"}},{"base_weights":[6.535917E-4,3.7939972E-1,-5.424022E-1,5.1257473E-1,-6.117677E-1,-2.6115802E-1,-6.9869155E-1,-4.4983104E-1,5.756325E-1,-1.1034543E-2,-3.205339E-2,1.319664E-1,-6.378219E-1,-2.8415525E-1,-3.6334645E-2,-5.6311986E-3,-3.165176E-2,3.1169051E-2,8.304485E-4,2.2243759E-2,-3.388309E-2,-9.672174E-3,-3.354428E-2,2.4277741E-2,-3.0425498E-2],"categories":[],"categories_nodes":[],"categories_segments":[],"categories_sizes":[],"default_left":[0,0,0,0,0,0,0,0,0,0,0,0,0,0,0,0,0,0,0,0,0,0,0,0,0],"id":26,"left_children":[1,3,5,7,9,11,13,15,17,-1,-1,19,21,23,-1,-1,-1,-1,-1,-1,-1,-1,-1,-1,-1],"loss_changes":[5.3576122E1,2.0569517E1,4.5219326E0,8.501663E0,7.202101E-2,5.981634E0,5.851326E-1,4.793532E-1,3.4038887E0,0E0,0E0,5.448431E0,1.7158222E-1,1.7827767E0,0E0,0E0,0E0,0E0,0E0,0E0,0E0,0E0,0E0,0E0,0E0],"parents":[2147483647,0,0,1,1,2,2,3,3,4,4,5,5,6,6,7,7,8,8,11,11,12,12,13,13],"right_children":[2,4,6,8,10,12,14,16,18,-1,-1,20,22,24,-1,-1,-1,-1,-1,-1,-1,-1,-1,-1,-1],"split_conditions":[2.41E1,8.1E1,1E0,1.85E1,8.3E1,1E0,2.45E1,1E0,1E0,-1.1034543E-2,-3.205339E-2,2.93E1,6.3E1,7.7E1,-3.6334645E-2,-5.6311986E-3,-3.165176E-2,3.1169051E-2,8.304485E-4,2.2243759E-2,-3.388309E-2,-9.672174E-3,-3.354428E-2,2.4277741E-2,-3.0425498E-2],"split_indices":[5,10,9,5,10,7,5,9,7,0,0,5,2,10,0,0,0,0,0,0,0,0,0,0,0],"split_type":[0,0,0,0,0,0,0,0,0,0,0,0,0,0,0,0,0,0,0,0,0,0,0,0,0],"sum_hessian":[2.5848203E2,1.5245555E2,1.0602648E2,1.348233E2,1.7632242E1,3.8827328E1,6.719915E1,7.913378E0,1.2690993E2,1.823641E0,1.5808601E1,1.9316416E1,1.9510912E1,4.9573717E0,6.224178E1,3.3542545E0,4.5591235E0,1.1681698E2,1.0092953E1,1.4256874E1,5.0595417E0,1.8255802E0,1.7685333E1,1.3223592E0,3.6350124E0],"tree_param":{"num_deleted":"0","num_feature":"11","num_nodes":"25","size_leaf_vector":"1"}},{"base_weights":[6.3443994E-3,-3.110952E-1,6.322728E-1,-5.1959944E-1,3.6831047E-2,3.6911187E-1,3.5893627E-2,-5.6998485E-1,4.7237694E-1,-3.622937E-3,3.3721782E-2,-3.1120485E-2,7.217485E-3,-5.015154E-3,3.2355454E-2,2.3605097E-2,-1.2052731E-2],"categories":[],"categories_nodes":[],"categories_segments":[],"categories_sizes":[],"default_left":[0,0,0,0,0,0,0,0,0,0,0,0,0,0,0,0,0],"id":27,"left_children":[1,3,5,7,-1,9,-1,11,13,15,-1,-1,-1,-1,-1,-1,-1],"loss_changes":[5.2283203E1,3.8525482E1,1.7295265E0,7.5769806E0,0E0,2.7098167E0,0E0,5.3175354E0,8.268335E-1,1.4361235E0,0E0,0E0,0E0,0E0,0E0,0E0,0E0],"parents":[2147483647,0,0,1,1,2,2,3,3,5,5,7,7,8,8,9,9],"right_children":[2,4,6,8,-1,10,-1,12,14,16,-1,-1,-1,-1,-1,-1,-1],"split_conditions":[1E0,1E0,7.7E1,1E0,3.6831047E-2,7.9E0,3.5893627E-2,1.4E2,7.5E1,7E1,3.3721782E-2,-3.1120485E-2,7.217485E-3,-5.015154E-3,3.2355454E-2,2.3605097E-2,-1.2052731E-2],"split_indices":[7,8,10,6,0,3,0,1,2,10,0,0,0,0,0,0,0],"split_type":[0,0,0,0,0,0,0,0,0,0,0,0,0,0,0,0,0],"sum_hessian":[2.6114377E2,1.7360365E2,8.7540115E1,1.4520976E2,2.8393885E1,2.2789625E1,6.475049E1,1.3859549E2,6.614271E0,1.0706914E1,1.208271E1,1.2923933E2,9.35616E0,1.645885E0,4.968386E0,3.2356014E0,7.4713125E0],"tree_param":{"num_deleted":"0","num_feature":"11","num_nodes":"17","size_leaf_vector":"1"}},{"base_weights":[3.2904546E-3,3.089923E-1,-6.153738E-1,5.0741756E-1,-3.609204E-2,-3.1656328E-1,-3.559671E-2,5.6221277E-1,-2.7661294E-1,4.7137957E-2,-3.268067E-2,3.0136129E-2,2.360104E-3,-2.0977778E-2,2.0189868E-2,-2.3860183E-2,1.5487837E-2],"categories":[],"categories_nodes":[],"categories_segments":[],"categories_sizes":[],"default_left":[0,0,0,0,0,0,0,0,0,0,0,0,0,0,0,0,0],"id":28,"left_children":[1,3,5,7,-1,9,-1,11,13,15,-1,-1,-1,-1,-1,-1,-1],"loss_changes":[4.74568E1,3.471598E1,2.1690655E0,6.230789E0,0E0,2.7360647E0,0E0,2.7360077E0,1.1330522E0,1.7378931E0,0E0,0E0,0E0,0E0,0E0,0E0,0E0],"parents":[2147483647,0,0,1,1,2,2,3,3,5,5,7,7,8,8,9,9],"right_children":[2,4,6,8,-1,10,-1,12,14,16,-1,-1,-1,-1,-1,-1,-1],"split_conditions":[1E0,1E0,7.7E1,7.9E0,-3.609204E-2,7.9E0,-3.559671E-2,7.9E1,4.3E1,7E1,-3.268067E-2,3.0136129E-2,2.360104E-3,-2.0977778E-2,2.0189868E-2,-2.3860183E-2,1.5487837E-2],"split_indices":[7,8,10,3,0,3,0,10,0,10,0,0,0,0,0,0,0],"split_type":[0,0,0,0,0,0,0,0,0,0,0,0,0,0,0,0,0],"sum_hessian":[2.4892041E2,1.6693367E2,8.198673E1,1.4041327E2,2.652041E1,2.1068304E1,6.0918427E1,1.3150539E2,8.907881E0,1.0547231E1,1.0521073E1,1.2175782E2,9.747563E0,7.6782002E0,1.2296804E0,3.2470708E0,7.3001604E0],"tree_param":{"num_deleted":"0","num_feature":"11","num_nodes":"17","size_leaf_vector":"1"}},{"base_weights":[8.58051E-3,-3.5767135E-1,5.425632E-1,-5.0522906E-1,6.093805E-1,5.0911315E-2,6.317475E-1,4.5248064E-1,-5.72985E-1,6.369683E-1,6.906055E-3,-3.951743E-1,5.722151E-1,4.380418E-1,3.527599E-2,5.3255004E-3,3.145742E-2,-3.0765748E-2,-3.1542033E-3,1.0107508E-2,3.3500373E-2,-2.9372722E-2,2.2493107E-2,3.266315E-2,5.409535E-3,-1.4620749E-3,3.372717E-2],"categories":[],"categories_nodes":[],"categories_segments":[],"categories_sizes":[],"default_left":[0,0,0,0,0,0,0,0,0,0,0,0,0,0,0,0,0,0,0,0,0,0,0,0,0,0,0],"id":29,"left_children":[1,3,5,7,9,11,13,15,17,19,-1,21,23,25,-1,-1,-1,-1,-1,-1,-1,-1,-1,-1,-1,-1,-1],"loss_changes":[4.985093E1,2.1884823E1,4.514679E0,8.807819E0,1.7816687E-1,4.1816607E0,9.440079E-1,4.9916887E-1,2.626274E0,1.3840437E-1,0E0,1.8497295E0,2.3966813E-1,2.9839387E0,0E0,0E0,0E0,0E0,0E0,0E0,0E0,0E0,0E0,0E0,0E0,0E0,0E0],"parents":[2147483647,0,0,1,1,2,2,3,3,4,4,5,5,6,6,7,7,8,8,9,9,11,11,12,12,13,13],"right_children":[2,4,6,8,10,12,14,16,18,20,-1,22,24,26,-1,-1,-1,-1,-1,-1,-1,-1,-1,-1,-1,-1,-1],"split_conditions":[2.41E1,8.1E1,6.9E0,1.85E1,1.4E1,1E0,7.9E0,1E0,1E0,8.3E1,6.906055E-3,1E0,7.9E1,7.7E1,3.527599E-2,5.3255004E-3,3.145742E-2,-3.0765748E-2,-3.1542033E-3,1.0107508E-2,3.3500373E-2,-2.9372722E-2,2.2493107E-2,3.266315E-2,5.409535E-3,-1.4620749E-3,3.372717E-2],"split_indices":[5,10,3,5,3,7,3,9,7,10,0,8,2,10,0,0,0,0,0,0,0,0,0,0,0,0,0],"split_type":[0,0,0,0,0,0,0,0,0,0,0,0,0,0,0,0,0,0,0,0,0,0,0,0,0,0,0],"sum_hessian":[2.5290562E2,1.5020923E2,1.02696396E2,1.307381E2,1.9471128E1,1.6009684E1,8.6686714E1,8.26313E0,1.2247496E2,1.806213E1,1.4089985E0,8.75763E0,7.252054E0,2.5822258E1,6.0864452E1,3.3350132E0,4.9281173E0,1.1289604E2,9.578921E0,1.7782056E0,1.6283924E1,7.382605E0,1.3750249E0,5.82655E0,1.4255047E0,8.971868E0,1.6850391E1],"tree_param":{"num_deleted":"0","num_feature":"11","num_nodes":"27","size_leaf_vector":"1"}},{"base_weights":[3.0801313E-3,3.630056E-1,-5.179583E-1,5.0418216E-1,-5.877449E-1,-3.3126835E-2,-6.079031E-1,-4.1698143E-1,5.654749E-1,-5.4474217E-3,-6.1731887E-1,2.943846E-1,-4.9242553E-1,-3.94512E-1,-3.46469E-2,-7.2733796E-4,-3.0569414E-2,2.9135985E-2,1.1388664E-2,-3.2566506E-2,-5.629606E-3,-1.1068856E-2,2.5883114E-2,5.0153495E-3,-3.1186506E-2,6.4736917E-3,-3.3085465E-2],"categories":[],"categories_nodes":[],"categories_segments":[],"categories_sizes":[],"default_left":[0,0,0,0,0,0,0,0,0,0,0,0,0,0,0,0,0,0,0,0,0,0,0,0,0,0,0],"id":30,"left_children":[1,3,5,7,9,11,13,15,17,-1,19,21,23,25,-1,-1,-1,-1,-1,-1,-1,-1,-1,-1,-1,-1,-1],"loss_changes":[4.6924088E1,2.015909E1,4.4379177E0,7.5411224E0,2.1020222E-1,2.7105105E0,1.290329E0,6.676706E-1,5.762367E-1,0E0,2.3978615E-1,1.3331811E0,6.442114E-1,3.8486557E0,0E0,0E0,0E0,0E0,0E0,0E0,0E0,0E0,0E0,0E0,0E0,0E0,0E0],"parents":[2147483647,0,0,1,1,2,2,3,3,4,4,5,5,6,6,7,7,8,8,10,10,11,11,12,12,13,13],"right_children":[2,4,6,8,10,12,14,16,18,-1,20,22,24,26,-1,-1,-1,-1,-1,-1,-1,-1,-1,-1,-1,-1,-1],"split_conditions":[2.41E1,8.1E1,6.9E0,1.85E1,8.3E1,1E0,7.9E0,1E0,9.5E1,-5.4474217E-3,1.3E1,2.43E1,2.45E1,7.7E1,-3.46469E-2,-7.2733796E-4,-3.0569414E-2,2.9135985E-2,1.1388664E-2,-3.2566506E-2,-5.629606E-3,-1.1068856E-2,2.5883114E-2,5.0153495E-3,-3.1186506E-2,6.4736917E-3,-3.3085465E-2],"split_indices":[5,10,3,5,10,9,3,9,2,0,3,5,5,10,0,0,0,0,0,0,0,0,0,0,0,0,0],"split_type":[0,0,0,0,0,0,0,0,0,0,0,0,0,0,0,0,0,0,0,0,0,0,0,0,0,0,0],"sum_hessian":[2.4821251E2,1.4698251E2,1.01229996E2,1.2838794E2,1.8594574E1,1.6055265E1,8.517473E1,7.647731E0,1.20740204E2,1.3542054E0,1.7240368E1,9.581824E0,6.4734406E0,2.5876984E1,5.929774E1,2.8411646E0,4.806566E0,1.1418386E2,6.5563455E0,1.5879837E1,1.3605311E0,2.8974204E0,6.6844034E0,1.216775E0,5.2566657E0,8.913214E0,1.6963772E1],"tree_param":{"num_deleted":"0","num_feature":"11","num_nodes":"27","size_leaf_vector":"1"}},{"base_weights":[-1.0538348E-3,-3.6837813E-1,5.1019937E-1,-4.9950093E-1,6.095888E-1,2.2735062E-1,6.7401737E-1,4.2021942E-1,-5.6363404E-1,6.4213157E-1,1.00775305E-2,-1.3455601E-1,6.0156274E-1,3.7108326E-1,3.4805663E-2,-9.4654365E-4,3.105135E-2,-3.0397862E-2,2.2773908E-3,1.3638585E-2,3.4066208E-2,-2.1185895E-2,3.0559266E-2,1.8024953E-2,3.3209555E-2,-7.804045E-3,2.9503658E-2],"categories":[],"categories_nodes":[],"categories_segments":[],"categories_sizes":[],"default_left":[0,0,0,0,0,0,0,0,0,0,0,0,0,0,0,0,0,0,0,0,0,0,0,0,0,0,0],"id":31,"left_children":[1,3,5,7,9,11,13,15,17,19,-1,21,23,25,-1,-1,-1,-1,-1,-1,-1,-1,-1,-1,-1,-1,-1],"loss_changes":[4.747372E1,1.9167936E1,4.7440567E0,7.9201965E0,1.0749102E-1,5.5349894E0,1.8626976E-1,8.110621E-1,3.3270988E0,4.6732426E-2,0E0,4.8499184E0,6.2240124E-2,8.606023E-1,0E0,0E0,0E0,0E0,0E0,0E0,0E0,0E0,0E0,0E0,0E0,0E0,0E0],"parents":[2147483647,0,0,1,1,2,2,3,3,4,4,5,5,6,6,7,7,8,8,9,9,11,11,12,12,13,13],"right_children":[2,4,6,8,10,12,14,16,18,20,-1,22,24,26,-1,-1,-1,-1,-1,-1,-1,-1,-1,-1,-1,-1,-1],"split_conditions":[2.41E1,8.1E1,1E0,1.85E1,1.35E2,1E0,2.45E1,1E0,1E0,8.3E1,1.00775305E-2,1.35E2,1.15E2,7.7E1,3.4805663E-2,-9.4654365E-4,3.105135E-2,-3.0397862E-2,2.2773908E-3,1.3638585E-2,3.4066208E-2,-2.1185895E-2,3.0559266E-2,1.8024953E-2,3.3209555E-2,-7.804045E-3,2.9503658E-2],"split_indices":[5,10,9,5,1,7,5,9,7,10,0,1,1,10,0,0,0,0,0,0,0,0,0,0,0,0,0],"split_type":[0,0,0,0,0,0,0,0,0,0,0,0,0,0,0,0,0,0,0,0,0,0,0,0,0,0,0],"sum_hessian":[2.5079366E2,1.46102E2,1.0469165E2,1.292604E2,1.6841593E1,3.9272114E1,6.541954E1,8.0639925E0,1.2119642E2,1.5066288E1,1.7753048E0,2.0289873E1,1.898224E1,5.656955E0,5.9762585E1,2.8145404E0,5.249452E0,1.12978294E2,8.218128E0,2.2088969E0,1.2857391E1,1.4931851E1,5.3580227E0,5.3078575E0,1.3674383E1,1.7445793E0,3.9123752E0],"tree_param":{"num_deleted":"0","num_feature":"11","num_nodes":"27","size_leaf_vector":"1"}},{"base_weights":[1.2231889E-2,3.104743E-1,-5.7207376E-1,4.8926488E-1,-3.467617E-2,-1.9562827E-1,-6.493838E-1,5.769035E-1,-2.3316902E-1,-5.840618E-1,2.8931955E-2,-5.031484E-1,-3.448106E-2,2.9693125E-2,-7.961563E-3,7.943772E-3,-3.152265E-2,-6.055932E-3,-3.227549E-2,-3.3256978E-2,-5.4873303E-3],"categories":[],"categories_nodes":[],"categories_segments":[],"categories_sizes":[],"default_left":[0,0,0,0,0,0,0,0,0,0,0,0,0,0,0,0,0,0,0,0,0],"id":32,"left_children":[1,3,5,7,-1,9,11,13,15,17,-1,19,-1,-1,-1,-1,-1,-1,-1,-1,-1],"loss_changes":[4.132327E1,2.8516048E1,2.2053165E0,8.607567E0,0E0,4.8749313E0,4.1698456E-2,1.5881233E0,2.4661248E0,2.2174382E-1,0E0,1.0710316E0,0E0,0E0,0E0,0E0,0E0,0E0,0E0,0E0,0E0],"parents":[2147483647,0,0,1,1,2,2,3,3,5,5,6,6,7,7,8,8,9,9,11,11],"right_children":[2,4,6,8,-1,10,12,14,16,18,-1,20,-1,-1,-1,-1,-1,-1,-1,-1,-1],"split_conditions":[1E0,1E0,2.22E1,2.5E1,-3.467617E-2,1.84E1,7.7E1,1E0,1E0,1.68E1,2.8931955E-2,7.3E1,-3.448106E-2,2.9693125E-2,-7.961563E-3,7.943772E-3,-3.152265E-2,-6.055932E-3,-3.227549E-2,-3.3256978E-2,-5.4873303E-3],"split_indices":[7,8,5,5,0,5,10,6,9,5,0,10,0,0,0,0,0,0,0,0,0],"split_type":[0,0,0,0,0,0,0,0,0,0,0,0,0,0,0,0,0,0,0,0,0],"sum_hessian":[2.3511006E2,1.559688E2,7.914126E1,1.3282771E2,2.3141096E1,1.4085452E1,6.50558E1,1.1863724E2,1.4190472E1,9.543393E0,4.542059E0,1.695185E1,4.8103954E1,1.1615456E2,2.4826813E0,7.444373E0,6.7460985E0,1.4664421E0,8.076951E0,1.1518243E1,5.4336076E0],"tree_param":{"num_deleted":"0","num_feature":"11","num_nodes":"21","size_leaf_vector":"1"}},{"base_weights":[8.158475E-3,-3.5061938E-1,4.9405718E-1,-4.7904313E-1,5.5925447E-1,2.1687734E-1,3.3934105E-2,4.5819685E-1,-5.402996E-1,4.4611082E-3,5.920692E-1,-1.7660667E-1,5.866179E-1,-8.5147E-4,3.0340333E-2,-2.9095406E-2,-1.5158531E-2,3.144475E-2,5.410695E-3,-2.1476286E-2,1.8703816E-2,7.7167735E-3,3.4012705E-2],"categories":[],"categories_nodes":[],"categories_segments":[],"categories_sizes":[],"default_left":[0,0,0,0,0,0,0,0,0,0,0,0,0,0,0,0,0,0,0,0,0,0,0],"id":33,"left_children":[1,3,5,7,9,11,-1,13,15,-1,17,19,21,-1,-1,-1,-1,-1,-1,-1,-1,-1,-1],"loss_changes":[4.193547E1,1.6438786E1,5.0811977E0,7.2410564E0,2.1830511E-1,6.259949E0,0E0,5.7631826E-1,9.5624924E-1,0E0,2.2156334E-1,3.1228623E0,7.874284E-1,0E0,0E0,0E0,0E0,0E0,0E0,0E0,0E0,0E0,0E0],"parents":[2147483647,0,0,1,1,2,2,3,3,4,4,5,5,7,7,8,8,10,10,11,11,12,12],"right_children":[2,4,6,8,10,12,-1,14,16,-1,18,20,22,-1,-1,-1,-1,-1,-1,-1,-1,-1,-1],"split_conditions":[2.41E1,8.1E1,7.9E0,1.85E1,8.3E1,1E0,3.3934105E-2,1E0,2.39E1,4.4611082E-3,1.3E1,7.8E1,2.45E1,-8.5147E-4,3.0340333E-2,-2.9095406E-2,-1.5158531E-2,3.144475E-2,5.410695E-3,-2.1476286E-2,1.8703816E-2,7.7167735E-3,3.4012705E-2],"split_indices":[5,10,3,5,10,9,0,9,5,0,3,10,5,0,0,0,0,0,0,0,0,0,0],"split_type":[0,0,0,0,0,0,0,0,0,0,0,0,0,0,0,0,0,0,0,0,0,0,0],"sum_hessian":[2.38559E2,1.373908E2,1.01168205E2,1.2081231E2,1.6578493E1,4.1315456E1,5.985275E1,7.0141416E0,1.13798164E2,1.3245696E0,1.5253922E1,2.0268127E1,2.1047327E1,1.8818251E0,5.132316E0,9.557403E1,1.8224136E1,1.3896514E1,1.357409E0,1.4039873E1,6.2282543E0,4.2188334E0,1.6828493E1],"tree_param":{"num_deleted":"0","num_feature":"11","num_nodes":"23","size_leaf_vector":"1"}},{"base_weights":[-9.9605825E-3,3.4277192E-1,-5.098084E-1,4.9722895E-1,-4.7833052E-1,-3.183854E-2,-5.982411E-1,-4.226641E-1,5.5304086E-1,-2.1742553E-1,-3.2968696E-2,3.8757002E-1,-5.2397394E-1,-4.1585764E-1,-3.328964E-2,-2.9225335E-2,-5.9026266E-3,2.9667327E-2,4.498442E-3,9.154682E-3,-2.7719567E-2,2.784877E-2,-6.794368E-3,-3.0831123E-2,-1.927134E-3,1.8966433E-3,-3.1475957E-2],"categories":[],"categories_nodes":[],"categories_segments":[],"categories_sizes":[],"default_left":[0,0,0,0,0,0,0,0,0,0,0,0,0,0,0,0,0,0,0,0,0,0,0,0,0,0,0],"id":34,"left_children":[1,3,5,7,9,11,13,15,17,19,-1,21,23,25,-1,-1,-1,-1,-1,-1,-1,-1,-1,-1,-1,-1,-1],"loss_changes":[4.092114E1,1.7497246E1,4.039322E0,6.13962E0,8.984575E-1,3.5152795E0,7.206764E-1,2.8333056E-1,1.9789009E0,1.5222709E0,0E0,8.949232E-1,3.2741952E-1,2.4039545E0,0E0,0E0,0E0,0E0,0E0,0E0,0E0,0E0,0E0,0E0,0E0,0E0,0E0],"parents":[2147483647,0,0,1,1,2,2,3,3,4,4,5,5,6,6,7,7,8,8,9,9,11,11,12,12,13,13],"right_children":[2,4,6,8,10,12,14,16,18,20,-1,22,24,26,-1,-1,-1,-1,-1,-1,-1,-1,-1,-1,-1,-1,-1],"split_conditions":[2.41E1,7.9E1,6.9E0,1.84E1,1E0,1E0,7.9E0,7.7E1,1E0,1E0,-3.2968696E-2,1E0,7.9E1,7.7E1,-3.328964E-2,-2.9225335E-2,-5.9026266E-3,2.9667327E-2,4.498442E-3,9.154682E-3,-2.7719567E-2,2.784877E-2,-6.794368E-3,-3.0831123E-2,-1.927134E-3,1.8966433E-3,-3.1475957E-2],"split_indices":[5,10,3,5,7,7,3,10,7,9,0,9,2,10,0,0,0,0,0,0,0,0,0,0,0,0,0],"split_type":[0,0,0,0,0,0,0,0,0,0,0,0,0,0,0,0,0,0,0,0,0,0,0,0,0,0,0],"sum_hessian":[2.3010315E2,1.3508832E2,9.501484E1,1.1403223E2,2.1056091E1,1.5047045E1,7.996779E1,6.146841E0,1.0788538E2,9.527209E0,1.1528881E1,8.238493E0,6.8085513E0,2.3547606E1,5.6420185E1,3.4140625E0,2.7327785E0,9.898815E1,8.897234E0,4.561742E0,4.965468E0,6.1758E0,2.062693E0,5.4904056E0,1.3181456E0,7.801226E0,1.574638E1],"tree_param":{"num_deleted":"0","num_feature":"11","num_nodes":"27","size_leaf_vector":"1"}},{"base_weights":[7.685582E-3,-3.4130204E-1,4.8826858E-1,-4.714842E-1,5.5736405E-1,2.2007231E-1,3.339455E-2,4.0952373E-1,-5.352179E-1,3.2928726E-1,3.3170775E-2,-1.4942949E-1,5.7666194E-1,7.623744E-4,2.9633556E-2,-2.873387E-2,-1.4897272E-2,2.7507747E-2,-1.6953236E-4,-2.1296589E-2,2.030063E-2,3.104802E-2,-4.8828814E-3],"categories":[],"categories_nodes":[],"categories_segments":[],"categories_sizes":[],"default_left":[0,0,0,0,0,0,0,0,0,0,0,0,0,0,0,0,0,0,0,0,0,0,0],"id":35,"left_children":[1,3,5,7,9,11,-1,13,15,17,-1,19,21,-1,-1,-1,-1,-1,-1,-1,-1,-1,-1],"loss_changes":[4.0430172E1,1.6602049E1,4.738064E0,7.099409E0,2.2007608E-1,5.6418724E0,0E0,6.28785E-1,9.026756E-1,5.705816E-1,0E0,3.4752116E0,7.0775366E-1,0E0,0E0,0E0,0E0,0E0,0E0,0E0,0E0,0E0,0E0],"parents":[2147483647,0,0,1,1,2,2,3,3,4,4,5,5,7,7,8,8,9,9,11,11,12,12],"right_children":[2,4,6,8,10,12,-1,14,16,18,-1,20,22,-1,-1,-1,-1,-1,-1,-1,-1,-1,-1],"split_conditions":[2.41E1,8.1E1,7.9E0,1.85E1,1E0,1E0,3.339455E-2,1E0,2.39E1,1.84E1,3.3170775E-2,7.9E1,1.01E2,7.623744E-4,2.9633556E-2,-2.873387E-2,-1.4897272E-2,2.7507747E-2,-1.6953236E-4,-2.1296589E-2,2.030063E-2,3.104802E-2,-4.8828814E-3],"split_indices":[5,10,3,5,9,9,0,9,5,5,0,10,4,0,0,0,0,0,0,0,0,0,0],"split_type":[0,0,0,0,0,0,0,0,0,0,0,0,0,0,0,0,0,0,0,0,0,0,0],"sum_hessian":[2.390675E2,1.3866338E2,1.0040413E2,1.21533226E2,1.7130144E1,4.1165154E1,5.9238976E1,7.8327923E0,1.1370043E2,6.7399735E0,1.039017E1,2.0501863E1,2.0663292E1,2.8279934E0,5.004799E0,9.62685E1,1.7431934E1,3.657808E0,3.0821655E0,1.3843604E1,6.65826E0,1.9463776E1,1.1995147E0],"tree_param":{"num_deleted":"0","num_feature":"11","num_nodes":"23","size_leaf_vector":"1"}},{"base_weights":[-1.6879978E-2,2.835369E-1,-5.743534E-1,4.8191705E-1,-3.3747878E-2,-2.4681877E-1,-6.353963E-1,5.6539196E-1,-1.7966704E-1,-5.636426E-1,2.6893213E-2,-4.7493336E-1,-3.3452123E-2,2.9428292E-2,-1.1172756E-2,6.660837E-3,-3.1823006E-2,-3.4808086E-3,-3.15629E-2,-2.031438E-3,-2.5719175E-2],"categories":[],"categories_nodes":[],"categories_segments":[],"categories_sizes":[],"default_left":[0,0,0,0,0,0,0,0,0,0,0,0,0,0,0,0,0,0,0,0,0],"id":36,"left_children":[1,3,5,7,-1,9,11,13,15,17,-1,19,-1,-1,-1,-1,-1,-1,-1,-1,-1],"loss_changes":[3.8018593E1,2.8382095E1,1.4323711E0,6.8852234E0,0E0,3.8139195E0,4.0538788E-2,2.1298447E0,2.1601784E0,3.0840564E-1,0E0,2.352438E-1,0E0,0E0,0E0,0E0,0E0,0E0,0E0,0E0,0E0],"parents":[2147483647,0,0,1,1,2,2,3,3,5,5,6,6,7,7,8,8,9,9,11,11],"right_children":[2,4,6,8,-1,10,12,14,16,18,-1,20,-1,-1,-1,-1,-1,-1,-1,-1,-1],"split_conditions":[1E0,1E0,2.22E1,2.5E1,-3.3747878E-2,1.84E1,6.3E1,1E0,1.25E2,5.2E0,2.6893213E-2,1.9E1,-3.3452123E-2,2.9428292E-2,-1.1172756E-2,6.660837E-3,-3.1823006E-2,-3.4808086E-3,-3.15629E-2,-2.031438E-3,-2.5719175E-2],"split_indices":[7,8,5,5,0,5,2,6,1,3,0,0,0,0,0,0,0,0,0,0,0],"split_type":[0,0,0,0,0,0,0,0,0,0,0,0,0,0,0,0,0,0,0,0,0],"sum_hessian":[2.2503896E2,1.4655391E2,7.848506E1,1.21834885E2,2.471902E1,1.3121753E1,6.5363304E1,1.0831385E2,1.352103E1,9.548244E0,3.5735078E0,1.3949917E1,5.141339E1,1.0546938E2,2.8444734E0,8.444959E0,5.0760717E0,1.3938417E0,8.154403E0,1.3306574E0,1.2619259E1],"tree_param":{"num_deleted":"0","num_feature":"11","num_nodes":"21","size_leaf_vector":"1"}},{"base_weights":[9.362418E-3,-3.3213684E-1,4.9700058E-1,-4.6138737E-1,5.435115E-1,2.463319E-1,6.366996E-1,-5.5057615E-1,1.9223517E-1,5.736871E-1,4.888349E-3,6.027406E-1,-5.213173E-2,6.5822625E-1,7.79661E-2,-2.9479528E-2,2.9297417E-2,-6.9873757E-3,2.6383191E-2,9.0799555E-3,3.0365054E-2,4.364464E-4,3.234614E-2,-1.3229665E-2,2.8469099E-2,5.8953813E-3,3.3373356E-2,-1.0448462E-2,1.7352892E-2],"categories":[],"categories_nodes":[],"categories_segments":[],"categories_sizes":[],"default_left":[0,0,0,0,0,0,0,0,0,0,0,0,0,0,0,0,0,0,0,0,0,0,0,0,0,0,0,0,0],"id":37,"left_children":[1,3,5,7,9,11,13,15,17,19,-1,21,23,25,27,-1,-1,-1,-1,-1,-1,-1,-1,-1,-1,-1,-1,-1,-1],"loss_changes":[3.8032887E1,1.54547825E1,3.1369286E0,6.961399E0,1.8249369E-1,3.7855475E0,6.675434E-1,4.945301E0,1.7286409E0,1.0596037E-1,0E0,4.1857195E-1,2.8084395E0,2.079773E-1,3.313102E-1,0E0,0E0,0E0,0E0,0E0,0E0,0E0,0E0,0E0,0E0,0E0,0E0,0E0,0E0],"parents":[2147483647,0,0,1,1,2,2,3,3,4,4,5,5,6,6,7,7,8,8,9,9,11,11,12,12,13,13,14,14],"right_children":[2,4,6,8,10,12,14,16,18,20,-1,22,24,26,28,-1,-1,-1,-1,-1,-1,-1,-1,-1,-1,-1,-1,-1,-1],"split_conditions":[2.41E1,8.1E1,7.7E1,1E0,4E1,7E1,5.4E1,1E0,7.7E1,8.3E1,4.888349E-3,2.45E1,1.25E2,1.9E1,1.35E2,-2.9479528E-2,2.9297417E-2,-6.9873757E-3,2.6383191E-2,9.0799555E-3,3.0365054E-2,4.364464E-4,3.234614E-2,-1.3229665E-2,2.8469099E-2,5.8953813E-3,3.3373356E-2,-1.0448462E-2,1.7352892E-2],"split_indices":[5,10,10,7,0,10,0,8,10,10,0,5,1,0,1,0,0,0,0,0,0,0,0,0,0,0,0,0,0],"split_type":[0,0,0,0,0,0,0,0,0,0,0,0,0,0,0,0,0,0,0,0,0,0,0,0,0,0,0,0,0],"sum_hessian":[2.2639598E2,1.3333716E2,9.305883E1,1.1659951E2,1.6737642E1,3.4291416E1,5.8767418E1,1.0273822E2,1.3861289E1,1.5407563E1,1.3300788E0,1.5163968E1,1.9127447E1,5.6415787E1,2.35163E0,9.9793755E1,2.9444654E0,7.259623E0,6.601666E0,1.7221487E0,1.3685414E1,1.1327087E0,1.403126E1,1.4682558E1,4.4448886E0,1.1799985E0,5.523579E1,1.2462102E0,1.1054196E0],"tree_param":{"num_deleted":"0","num_feature":"11","num_nodes":"29","size_leaf_vector":"1"}},{"base_weights":[5.547361E-3,3.1289256E-1,-5.4138505E-1,4.869043E-1,-3.3106342E-2,-2.4179126E-1,-6.426631E-1,5.516471E-1,-3.0939844E-1,2.9129198E-1,-4.7662118E-1,-4.8789973E-3,-3.2741107E-2,2.9995242E-2,9.8564075E-3,4.8690164E-3,-3.083261E-2,3.0108973E-2,-1.0769713E-2,-3.1292733E-2,-8.254882E-4],"categories":[],"categories_nodes":[],"categories_segments":[],"categories_sizes":[],"default_left":[0,0,0,0,0,0,0,0,0,0,0,0,0,0,0,0,0,0,0,0,0],"id":38,"left_children":[1,3,5,7,-1,9,11,13,15,17,19,-1,-1,-1,-1,-1,-1,-1,-1,-1,-1],"loss_changes":[3.6770008E1,2.4081188E1,2.232584E0,6.3264904E0,0E0,2.828611E0,3.2192993E-1,1.7770653E0,1.2622361E0,1.2625012E0,1.0399013E0,0E0,0E0,0E0,0E0,0E0,0E0,0E0,0E0,0E0,0E0],"parents":[2147483647,0,0,1,1,2,2,3,3,5,5,6,6,7,7,8,8,9,9,10,10],"right_children":[2,4,6,8,-1,10,12,14,16,18,20,-1,-1,-1,-1,-1,-1,-1,-1,-1,-1],"split_conditions":[1E0,1E0,7.7E1,2.62E1,-3.3106342E-2,2.41E1,1.68E1,1E0,8.5E1,1E0,7.3E1,-4.8789973E-3,-3.2741107E-2,2.9995242E-2,9.8564075E-3,4.8690164E-3,-3.083261E-2,3.0108973E-2,-1.0769713E-2,-3.1292733E-2,-8.254882E-4],"split_indices":[7,8,10,5,0,5,5,9,2,9,10,0,0,0,0,0,0,0,0,0,0],"split_type":[0,0,0,0,0,0,0,0,0,0,0,0,0,0,0,0,0,0,0,0,0],"sum_hessian":[2.1673499E2,1.3903375E2,7.7701225E1,1.18403E2,2.0630762E1,2.048659E1,5.7214634E1,1.097843E2,8.618697E0,6.1913276E0,1.4295262E1,1.4453537E0,5.576928E1,9.602153E1,1.376277E1,4.0026193E0,4.6160774E0,3.7202358E0,2.4710915E0,1.0522235E1,3.7730277E0],"tree_param":{"num_deleted":"0","num_feature":"11","num_nodes":"21","size_leaf_vector":"1"}},{"base_weights":[-1.11287115E-2,-3.127414E-1,5.376032E-1,-4.8623076E-1,3.2618843E-2,2.9061088E-1,6.348307E-1,-5.50181E-1,3.656857E-1,-3.3099028E-1,4.8972568E-1,4.8789973E-3,3.239974E-2,-2.9183006E-2,-1.2171307E-3,-1.0222688E-2,3.050292E-2,1.8768547E-2,-2.8757537E-2,2.449016E-3,3.0547047E-2],"categories":[],"categories_nodes":[],"categories_segments":[],"categories_sizes":[],"default_left":[0,0,0,0,0,0,0,0,0,0,0,0,0,0,0,0,0,0,0,0,0],"id":39,"left_children":[1,3,5,7,-1,9,11,13,15,17,19,-1,-1,-1,-1,-1,-1,-1,-1,-1,-1],"loss_changes":[3.5024075E1,2.3178522E1,1.6182251E0,6.537529E0,0E0,3.014717E0,3.1175232E-1,1.8973618E0,1.3398933E0,1.2831717E0,9.2421675E-1,0E0,0E0,0E0,0E0,0E0,0E0,0E0,0E0,0E0,0E0],"parents":[2147483647,0,0,1,1,2,2,3,3,5,5,6,6,7,7,8,8,9,9,10,10],"right_children":[2,4,6,8,-1,10,12,14,16,18,20,-1,-1,-1,-1,-1,-1,-1,-1,-1,-1],"split_conditions":[1E0,1E0,7.7E1,7.9E0,3.2618843E-2,2.35E1,1.68E1,1.4E2,2.41E1,1.81E1,6.3E1,4.8789973E-3,3.239974E-2,-2.9183006E-2,-1.2171307E-3,-1.0222688E-2,3.050292E-2,1.8768547E-2,-2.8757537E-2,2.449016E-3,3.0547047E-2],"split_indices":[7,8,10,3,0,5,5,1,5,5,2,0,0,0,0,0,0,0,0,0,0],"split_type":[0,0,0,0,0,0,0,0,0,0,0,0,0,0,0,0,0,0,0,0,0],"sum_hessian":[2.0960417E2,1.3553622E2,7.406796E1,1.1530519E2,2.023103E1,2.2047775E1,5.2020187E1,1.0758348E2,7.7217064E0,5.1883516E0,1.6859425E1,1.4453536E0,5.0574833E1,1.0104047E2,6.543016E0,2.3657017E0,5.3560047E0,1.194691E0,3.9936604E0,3.9394484E0,1.2919976E1],"tree_param":{"num_deleted":"0","num_feature":"11","num_nodes":"21","size_leaf_vector":"1"}},{"base_weights":[-4.982186E-3,3.4647378E-1,-4.722173E-1,4.6109837E-1,-5.0412095E-1,-2.2767127E-1,-6.181827E-1,-3.8467765E-1,5.271852E-1,-2.2032446E-1,-3.1460866E-2,1.21478006E-1,-5.526244E-1,-2.8979537E-1,-3.2120693E-2,-9.0421474E-4,-2.8002122E-2,2.8775884E-2,-3.0574045E-4,5.1791216E-3,-2.3933863E-2,1.8403577E-2,-2.9578933E-2,-8.325227E-3,-3.0965522E-2,-2.8819079E-2,7.5855353E-3],"categories":[],"categories_nodes":[],"categories_segments":[],"categories_sizes":[],"default_left":[0,0,0,0,0,0,0,0,0,0,0,0,0,0,0,0,0,0,0,0,0,0,0,0,0,0,0],"id":40,"left_children":[1,3,5,7,9,11,13,15,17,19,-1,21,23,25,-1,-1,-1,-1,-1,-1,-1,-1,-1,-1,-1,-1,-1],"loss_changes":[3.518199E1,1.2154718E1,3.14213E0,6.255163E0,3.9386725E-1,4.1469784E0,2.6747322E-1,5.3154635E-1,2.6031532E0,5.623596E-1,0E0,3.409874E0,3.8109446E-1,8.1365234E-1,0E0,0E0,0E0,0E0,0E0,0E0,0E0,0E0,0E0,0E0,0E0,0E0,0E0],"parents":[2147483647,0,0,1,1,2,2,3,3,4,4,5,5,6,6,7,7,8,8,9,9,11,11,12,12,13,13],"right_children":[2,4,6,8,10,12,14,16,18,20,-1,22,24,26,-1,-1,-1,-1,-1,-1,-1,-1,-1,-1,-1,-1,-1],"split_conditions":[2.41E1,8.1E1,1E0,1.85E1,1E0,1E0,2.45E1,1E0,1E0,1E0,-3.1460866E-2,2.93E1,2.4E1,2.42E1,-3.2120693E-2,-9.0421474E-4,-2.8002122E-2,2.8775884E-2,-3.0574045E-4,5.1791216E-3,-2.3933863E-2,1.8403577E-2,-2.9578933E-2,-8.325227E-3,-3.0965522E-2,-2.8819079E-2,7.5855353E-3],"split_indices":[5,10,9,5,9,7,5,9,7,7,0,5,0,5,0,0,0,0,0,0,0,0,0,0,0,0,0],"split_type":[0,0,0,0,0,0,0,0,0,0,0,0,0,0,0,0,0,0,0,0,0,0,0,0,0,0,0],"sum_hessian":[2.122503E2,1.2128085E2,9.0969444E1,1.07281685E2,1.3999172E1,3.495936E1,5.6010086E1,7.4258013E0,9.985588E1,5.127667E0,8.871505E0,1.7154112E1,1.7805246E1,4.7394423E0,5.1270645E1,2.7597578E0,4.6660433E0,9.148547E1,8.370406E0,2.5409927E0,2.5866742E0,1.310565E1,4.0484624E0,3.1372213E0,1.4668026E1,2.6886935E0,2.0507488E0],"tree_param":{"num_deleted":"0","num_feature":"11","num_nodes":"27","size_leaf_vector":"1"}},{"base_weights":[1.7864203E-2,-2.8144503E-1,5.6431586E-1,-4.6234977E-1,3.2326218E-2,3.1750655E-1,3.2318566E-2,-5.266376E-1,3.0710307E-1,-3.235914E-1,5.481151E-1,-2.811726E-2,1.6545821E-2,-4.5169066E-3,3.0387705E-2,1.850409E-2,-2.8256236E-2,6.2210793E-3,3.258195E-2],"categories":[],"categories_nodes":[],"categories_segments":[],"categories_sizes":[],"default_left":[0,0,0,0,0,0,0,0,0,0,0,0,0,0,0,0,0,0,0],"id":41,"left_children":[1,3,5,7,-1,9,-1,11,13,15,17,-1,-1,-1,-1,-1,-1,-1,-1],"loss_changes":[3.4644886E1,2.3280582E1,1.3126812E0,5.8576603E0,0E0,3.2327626E0,0E0,3.451439E0,1.1913118E0,1.2305121E0,6.0188055E-1,0E0,0E0,0E0,0E0,0E0,0E0,0E0,0E0],"parents":[2147483647,0,0,1,1,2,2,3,3,5,5,7,7,8,8,9,9,10,10],"right_children":[2,4,6,8,-1,10,-1,12,14,16,18,-1,-1,-1,-1,-1,-1,-1,-1],"split_conditions":[1E0,1E0,7.7E1,2.62E1,3.2326218E-2,2.35E1,3.2318566E-2,1E0,8.5E1,1.81E1,6.3E1,-2.811726E-2,1.6545821E-2,-4.5169066E-3,3.0387705E-2,1.850409E-2,-2.8256236E-2,6.2210793E-3,3.258195E-2],"split_indices":[7,8,10,5,0,5,0,6,2,5,2,0,0,0,0,0,0,0,0],"split_type":[0,0,0,0,0,0,0,0,0,0,0,0,0,0,0,0,0,0,0],"sum_hessian":[2.0984912E2,1.3589822E2,7.395089E1,1.14147316E2,2.1750906E1,1.9666548E1,5.428434E1,1.0563692E2,8.510403E0,5.0960855E0,1.4570462E1,1.0174463E2,3.8922894E0,3.9664876E0,4.543915E0,1.1786978E0,3.9173877E0,3.2933993E0,1.1277063E1],"tree_param":{"num_deleted":"0","num_feature":"11","num_nodes":"19","size_leaf_vector":"1"}},{"base_weights":[-4.937054E-3,3.1703055E-1,-4.7118977E-1,4.7301537E-1,-3.4381816E-1,-1.4361908E-2,-5.6335425E-1,5.592136E-1,-3.0397652E-2,-1.2865701E-1,-5.400959E-1,4.3058354E-1,-4.9639192E-1,-1.4562225E-2,-5.8836293E-1,-1.2278397E-2,2.873432E-2,2.4786338E-3,-2.4900926E-2,-2.853938E-2,-9.454658E-3,2.637587E-2,3.1688702E-3,-2.946325E-2,-4.3831435E-3,2.0218257E-2,-2.0959897E-2,-2.3147225E-2,-3.18578E-2],"categories":[],"categories_nodes":[],"categories_segments":[],"categories_sizes":[],"default_left":[0,0,0,0,0,0,0,0,0,0,0,0,0,0,0,0,0,0,0,0,0,0,0,0,0,0,0,0,0],"id":42,"left_children":[1,3,5,7,9,11,13,15,-1,17,19,21,23,25,27,-1,-1,-1,-1,-1,-1,-1,-1,-1,-1,-1,-1,-1,-1],"loss_changes":[3.0896145E1,1.2713148E1,3.5313091E0,9.5573845E0,9.3685436E-1,3.4606793E0,9.511337E-1,1.2884502E0,0E0,8.5945976E-1,2.2944689E-2,2.6583886E-1,2.4181569E-1,8.5994273E-1,1.1413956E-1,0E0,0E0,0E0,0E0,0E0,0E0,0E0,0E0,0E0,0E0,0E0,0E0,0E0,0E0],"parents":[2147483647,0,0,1,1,2,2,3,3,4,4,5,5,6,6,7,7,9,9,10,10,11,11,12,12,13,13,14,14],"right_children":[2,4,6,8,10,12,14,16,-1,18,20,22,24,26,28,-1,-1,-1,-1,-1,-1,-1,-1,-1,-1,-1,-1,-1,-1],"split_conditions":[2.41E1,1E0,6.9E0,1E0,7.5E1,1E0,2E1,1.81E1,-3.0397652E-2,7.6E0,1E0,1E0,2.49E1,1E0,1E0,-1.2278397E-2,2.873432E-2,2.4786338E-3,-2.4900926E-2,-2.853938E-2,-9.454658E-3,2.637587E-2,3.1688702E-3,-2.946325E-2,-4.3831435E-3,2.0218257E-2,-2.0959897E-2,-2.3147225E-2,-3.18578E-2],"split_indices":[5,7,3,8,2,7,0,5,0,3,6,9,5,9,9,0,0,0,0,0,0,0,0,0,0,0,0,0,0],"split_type":[0,0,0,0,0,0,0,0,0,0,0,0,0,0,0,0,0,0,0,0,0,0,0,0,0,0,0,0,0],"sum_hessian":[2.0381693E2,1.20752304E2,8.306463E1,9.792306E1,2.2829243E1,1.4138873E1,6.892575E1,9.1138214E1,6.7848425E0,1.168049E1,1.1148753E1,7.4077554E0,6.7311172E0,3.0730438E0,6.585271E1,1.4386603E0,8.9699554E1,8.462722E0,3.2177675E0,9.67648E0,1.4722733E0,5.51528E0,1.8924756E0,5.1249137E0,1.6062037E0,1.5101866E0,1.5628574E0,2.1381443E1,4.4471264E1],"tree_param":{"num_deleted":"0","num_feature":"11","num_nodes":"29","size_leaf_vector":"1"}},{"base_weights":[-1.0573312E-2,-3.1421167E-1,4.8306873E-1,-4.5145014E-1,4.8502654E-1,2.195871E-1,3.1643447E-2,-5.258689E-1,1.9923624E-1,-1.1844296E-3,3.023286E-2,-1.2016273E-1,5.7077575E-1,1.1816104E-2,-2.7170537E-2,-9.561106E-3,1.9751726E-2,2.0346956E-2,-1.5701924E-2,-1.4951817E-2,2.740573E-2,1.2268776E-2,3.129844E-2],"categories":[],"categories_nodes":[],"categories_segments":[],"categories_sizes":[],"default_left":[0,0,0,0,0,0,0,0,0,0,0,0,0,0,0,0,0,0,0,0,0,0,0],"id":43,"left_children":[1,3,5,7,9,11,-1,13,15,17,-1,19,21,-1,-1,-1,-1,-1,-1,-1,-1,-1,-1],"loss_changes":[3.089687E1,1.421571E1,2.9598827E0,5.4034653E0,1.1164861E0,3.6467988E0,0E0,1.444973E0,9.895618E-1,7.3887026E-1,0E0,2.0847473E0,1.14368916E-1,0E0,0E0,0E0,0E0,0E0,0E0,0E0,0E0,0E0,0E0],"parents":[2147483647,0,0,1,1,2,2,3,3,4,4,5,5,7,7,8,8,9,9,11,11,12,12],"right_children":[2,4,6,8,10,12,-1,14,16,18,-1,20,22,-1,-1,-1,-1,-1,-1,-1,-1,-1,-1],"split_conditions":[1E0,7.9E0,2.45E1,7.9E1,2.41E1,7.8E1,3.1643447E-2,1.72E1,2.35E1,1.84E1,3.023286E-2,1E0,8.1E1,1.1816104E-2,-2.7170537E-2,-9.561106E-3,1.9751726E-2,2.0346956E-2,-1.5701924E-2,-1.4951817E-2,2.740573E-2,1.2268776E-2,3.129844E-2],"split_indices":[9,3,5,10,5,10,0,5,5,5,0,8,10,0,0,0,0,0,0,0,0,0,0],"split_type":[0,0,0,0,0,0,0,0,0,0,0,0,0,0,0,0,0,0,0,0,0,0,0],"sum_hessian":[2.0411949E2,1.2660714E2,7.751235E1,1.0842454E2,1.8182598E1,2.898931E1,4.852304E1,9.746888E1,1.0955656E1,3.785878E0,1.4396721E1,1.5068986E1,1.3920323E1,1.9121969E0,9.555669E1,3.666781E0,7.288875E0,1.5123107E0,2.2735672E0,1.2323073E1,2.7459128E0,2.8084378E0,1.1111885E1],"tree_param":{"num_deleted":"0","num_feature":"11","num_nodes":"23","size_leaf_vector":"1"}},{"base_weights":[-4.5083952E-4,3.2051343E-1,-4.4077876E-1,4.504827E-1,-5.0441146E-1,-1.9362418E-1,-3.1018624E-2,-3.5591665E-1,5.1351887E-1,-2.9702473E-1,-3.0528342E-2,1.5062213E-1,-5.227446E-1,-9.34469E-4,-2.668911E-2,2.8244553E-2,-5.45429E-4,1.7148746E-3,-2.5498642E-2,1.4500878E-2,-2.6914999E-2,-3.207201E-3,-3.1026894E-2],"categories":[],"categories_nodes":[],"categories_segments":[],"categories_sizes":[],"default_left":[0,0,0,0,0,0,0,0,0,0,0,0,0,0,0,0,0,0,0,0,0,0,0],"id":44,"left_children":[1,3,5,7,9,11,-1,13,15,17,-1,19,21,-1,-1,-1,-1,-1,-1,-1,-1,-1,-1],"loss_changes":[2.8065538E1,1.2541919E1,3.596119E0,5.2535343E0,1.7320538E-1,4.235409E0,0E0,4.5926166E-1,2.5098286E0,5.3959525E-1,0E0,1.9527086E0,8.113961E-1,0E0,0E0,0E0,0E0,0E0,0E0,0E0,0E0,0E0,0E0],"parents":[2147483647,0,0,1,1,2,2,3,3,4,4,5,5,7,7,8,8,9,9,11,11,12,12],"right_children":[2,4,6,8,10,12,-1,14,16,18,-1,20,22,-1,-1,-1,-1,-1,-1,-1,-1,-1,-1],"split_conditions":[2.41E1,8.1E1,7.9E0,1.85E1,1E0,1E0,-3.1018624E-2,1E0,1E0,1E0,-3.0528342E-2,1E0,2.45E1,-9.34469E-4,-2.668911E-2,2.8244553E-2,-5.45429E-4,1.7148746E-3,-2.5498642E-2,1.4500878E-2,-2.6914999E-2,-3.207201E-3,-3.1026894E-2],"split_indices":[5,10,3,5,9,9,0,9,7,7,0,8,5,0,0,0,0,0,0,0,0,0,0],"split_type":[0,0,0,0,0,0,0,0,0,0,0,0,0,0,0,0,0,0,0,0,0,0,0],"sum_hessian":[1.9658266E2,1.1385989E2,8.272276E1,9.8754715E1,1.5105179E1,3.5687794E1,4.7034966E1,6.8230906E0,9.1931625E1,6.4000235E0,8.705155E0,1.770815E1,1.7979643E1,2.7376573E0,4.085433E0,8.365932E1,8.2723055E0,2.832275E0,3.5677485E0,1.5209677E1,2.498475E0,3.4511974E0,1.4528444E1],"tree_param":{"num_deleted":"0","num_feature":"11","num_nodes":"23","size_leaf_vector":"1"}},{"base_weights":[4.9014892E-3,-2.670734E-1,5.342729E-1,-4.828671E-1,3.2730928E-1,1.6947605E-1,6.023013E-1,-5.3762364E-1,2.900897E-2,3.2883417E-2,3.056322E-2,4.9997774E-1,-2.5945587E-2,4.2891505E-1,3.2178756E-2,2.3429643E-2,-2.799571E-2,-1.23195825E-2,2.3323251E-2,9.519582E-4,2.917031E-2,2.0735704E-3,2.917542E-2],"categories":[],"categories_nodes":[],"categories_segments":[],"categories_sizes":[],"default_left":[0,0,0,0,0,0,0,0,0,0,0,0,0,0,0,0,0,0,0,0,0,0,0],"id":45,"left_children":[1,3,5,7,9,11,13,15,-1,17,-1,19,-1,21,-1,-1,-1,-1,-1,-1,-1,-1,-1],"loss_changes":[2.875999E1,1.7085213E1,1.5803242E0,5.971216E0,2.9684873E0,3.0002666E0,1.3005829E-1,2.3478413E0,0E0,2.3680048E0,0E0,3.3590293E-1,0E0,8.089025E-1,0E0,0E0,0E0,0E0,0E0,0E0,0E0,0E0,0E0],"parents":[2147483647,0,0,1,1,2,2,3,3,4,4,5,5,6,6,7,7,9,9,11,11,13,13],"right_children":[2,4,6,8,10,12,14,16,-1,18,-1,20,-1,22,-1,-1,-1,-1,-1,-1,-1,-1,-1],"split_conditions":[1E0,1E0,2.22E1,2.93E1,2.45E1,1.84E1,6.3E1,1.8E1,2.900897E-2,8.5E1,3.056322E-2,6E0,-2.5945587E-2,7.7E1,3.2178756E-2,2.3429643E-2,-2.799571E-2,-1.23195825E-2,2.3323251E-2,9.519582E-4,2.917031E-2,2.0735704E-3,2.917542E-2],"split_indices":[7,9,5,5,5,5,2,5,0,2,0,3,0,10,0,0,0,0,0,0,0,0,0],"split_type":[0,0,0,0,0,0,0,0,0,0,0,0,0,0,0,0,0,0,0,0,0,0,0],"sum_hessian":[1.9776477E2,1.3097124E2,6.679353E1,9.622417E1,3.4747066E1,1.1046864E1,5.5746674E1,9.198059E1,4.243573E0,1.7606815E1,1.7140253E1,7.6484604E0,3.3984032E0,1.2909086E1,4.2837585E1,1.5595391E0,9.042106E1,1.0971604E1,6.635211E0,1.3122078E0,6.3362527E0,4.0434937E0,8.865592E0],"tree_param":{"num_deleted":"0","num_feature":"11","num_nodes":"23","size_leaf_vector":"1"}},{"base_weights":[-9.12862E-3,2.8550893E-1,-5.150216E-1,4.725817E-1,-3.0554724E-1,-2.7620688E-1,-3.0163601E-2,5.286262E-1,-2.0218125E-1,1.5677221E-1,-5.01848E-1,-2.9743422E-2,1.647341E-2,2.8123835E-2,6.752562E-3,1.916367E-2,-2.2653613E-2,2.2449099E-2,-1.7269058E-2,-1.0938449E-2,-2.8935567E-2,3.2660287E-2,-1.189394E-2],"categories":[],"categories_nodes":[],"categories_segments":[],"categories_sizes":[],"default_left":[0,0,0,0,0,0,0,0,0,0,0,0,0,0,0,0,0,0,0,0,0,0,0],"id":46,"left_children":[1,3,5,7,9,11,-1,13,15,17,19,-1,21,-1,-1,-1,-1,-1,-1,-1,-1,-1,-1],"loss_changes":[2.9198448E1,1.3834381E1,1.3527374E0,3.6782494E0,2.8351805E0,1.9960485E0,0E0,1.0894146E0,1.3436964E0,1.5952269E0,3.424797E-1,0E0,2.1108034E0,0E0,0E0,0E0,0E0,0E0,0E0,0E0,0E0,0E0,0E0],"parents":[2147483647,0,0,1,1,2,2,3,3,4,4,5,5,7,7,8,8,9,9,10,10,12,12],"right_children":[2,4,6,8,10,12,-1,14,16,18,20,-1,22,-1,-1,-1,-1,-1,-1,-1,-1,-1,-1],"split_conditions":[1E0,1E0,7.7E1,1.4E2,6.9E0,7E1,-3.0163601E-2,1E2,7.01E0,8.5E1,7.5E1,-2.9743422E-2,6.3E1,2.8123835E-2,6.752562E-3,1.916367E-2,-2.2653613E-2,2.2449099E-2,-1.7269058E-2,-1.0938449E-2,-2.8935567E-2,3.2660287E-2,-1.189394E-2],"split_indices":[7,9,10,1,3,10,0,4,3,2,2,0,2,0,0,0,0,0,0,0,0,0,0],"split_type":[0,0,0,0,0,0,0,0,0,0,0,0,0,0,0,0,0,0,0,0,0,0,0],"sum_hessian":[1.9390382E2,1.2281226E2,7.109155E1,9.343878E1,2.9373484E1,2.0296614E1,5.079494E1,8.647307E1,6.96571E0,8.814739E0,2.0558744E1,9.2227125E0,1.10739E1,7.922957E1,7.243503E0,1.9313207E0,5.0343895E0,5.6391373E0,3.1756024E0,5.2115192E0,1.5347224E1,2.7133427E0,8.360558E0],"tree_param":{"num_deleted":"0","num_feature":"11","num_nodes":"23","size_leaf_vector":"1"}},{"base_weights":[1.1354589E-2,-3.154721E-1,4.5234773E-1,5.2883303E-1,-4.3903086E-1,2.0402302E-1,5.980347E-1,7.738267E-4,5.7783407E-1,-5.3241646E-1,2.5440025E-1,-9.394084E-2,2.9649219E-2,1.6500609E-1,3.071574E-2,3.090672E-2,1.3142824E-2,-2.8638E-2,2.6822431E-2,-2.4240319E-2,2.5267586E-2,-1.5176864E-2,1.7967848E-2,1.7852386E-2,-5.452242E-3],"categories":[],"categories_nodes":[],"categories_segments":[],"categories_sizes":[],"default_left":[0,0,0,0,0,0,0,0,0,0,0,0,0,0,0,0,0,0,0,0,0,0,0,0,0],"id":47,"left_children":[1,3,5,7,9,11,13,-1,15,17,19,21,-1,23,-1,-1,-1,-1,-1,-1,-1,-1,-1,-1,-1],"loss_changes":[2.7970894E1,1.1862238E1,2.8661213E0,3.6047554E-1,6.4684696E0,3.771108E0,2.619629E-1,0E0,7.3418617E-3,4.0378685E0,2.5237489E0,1.915742E0,0E0,2.0917189E-1,0E0,0E0,0E0,0E0,0E0,0E0,0E0,0E0,0E0,0E0,0E0],"parents":[2147483647,0,0,1,1,2,2,3,3,4,4,5,5,6,6,8,8,9,9,10,10,11,11,13,13],"right_children":[2,4,6,8,10,12,14,-1,16,18,20,22,-1,24,-1,-1,-1,-1,-1,-1,-1,-1,-1,-1,-1],"split_conditions":[2.41E1,1.85E1,1E0,1.6E1,1E0,7.9E0,1.9E1,7.738267E-4,1.79E1,1E0,2.22E1,1E0,2.9649219E-2,5.7E0,3.071574E-2,3.090672E-2,1.3142824E-2,-2.8638E-2,2.6822431E-2,-2.4240319E-2,2.5267586E-2,-1.5176864E-2,1.7967848E-2,1.7852386E-2,-5.452242E-3],"split_indices":[5,5,9,5,7,3,0,0,5,8,5,7,0,3,0,0,0,0,0,0,0,0,0,0,0],"split_type":[0,0,0,0,0,0,0,0,0,0,0,0,0,0,0,0,0,0,0,0,0,0,0,0,0],"sum_hessian":[1.9207924E2,1.1048314E2,8.159609E1,1.3685688E1,9.6797455E1,3.1057953E1,5.0538143E1,1.3071587E0,1.237853E1,8.5513405E1,1.1284045E1,1.801559E1,1.3042361E1,2.2346625E0,4.8303482E1,1.01210985E1,2.2574306E0,8.285042E1,2.6629872E0,2.623715E0,8.660331E0,1.2545272E1,5.4703193E0,1.1358571E0,1.0988054E0],"tree_param":{"num_deleted":"0","num_feature":"11","num_nodes":"25","size_leaf_vector":"1"}},{"base_weights":[-7.723075E-3,3.0275393E-1,-4.3667644E-1,-5.6322885E-1,4.295753E-1,-2.2456346E-1,-3.0265009E-2,-3.8841527E-4,-3.0895153E-2,4.9046236E-1,-3.7636784E-1,9.316213E-2,-5.10327E-1,2.6793996E-2,1.210685E-2,1.0757869E-2,-2.6667966E-2,1.55018885E-2,-1.6730634E-2,-6.5163122E-3,-3.0145219E-2],"categories":[],"categories_nodes":[],"categories_segments":[],"categories_sizes":[],"default_left":[0,0,0,0,0,0,0,0,0,0,0,0,0,0,0,0,0,0,0,0,0],"id":48,"left_children":[1,3,5,7,9,11,-1,-1,-1,13,15,17,19,-1,-1,-1,-1,-1,-1,-1,-1],"loss_changes":[2.499337E1,1.2199943E1,2.682211E0,4.307375E-1,4.872925E0,3.3602138E0,0E0,0E0,0E0,8.769951E-1,7.9050255E-1,1.7850069E0,6.026149E-1,0E0,0E0,0E0,0E0,0E0,0E0,0E0,0E0],"parents":[2147483647,0,0,1,1,2,2,3,3,4,4,5,5,9,9,10,10,11,11,12,12],"right_children":[2,4,6,8,10,12,-1,-1,-1,14,16,18,20,-1,-1,-1,-1,-1,-1,-1,-1],"split_conditions":[2.41E1,1.84E1,7.9E0,1.6E1,8.1E1,1E0,-3.0265009E-2,-3.8841527E-4,-3.0895153E-2,2.37E1,2.17E1,7.9E1,2.45E1,2.6793996E-2,1.210685E-2,1.0757869E-2,-2.6667966E-2,1.55018885E-2,-1.6730634E-2,-6.5163122E-3,-3.0145219E-2],"split_indices":[5,5,3,5,10,9,0,0,0,5,5,10,5,0,0,0,0,0,0,0,0],"split_type":[0,0,0,0,0,0,0,0,0,0,0,0,0,0,0,0,0,0,0,0,0],"sum_hessian":[1.8567319E2,1.0788215E2,7.779103E1,1.3341356E1,9.4540794E1,3.5485416E1,4.230562E1,1.2978612E0,1.2043495E1,8.82641E1,6.276699E0,1.7122162E1,1.8363255E1,7.363807E1,1.4626028E1,1.2387462E0,5.037953E0,1.1544499E1,5.5776634E0,4.069013E0,1.4294242E1],"tree_param":{"num_deleted":"0","num_feature":"11","num_nodes":"21","size_leaf_vector":"1"}},{"base_weights":[1.5746025E-2,-3.11955E-1,4.5691046E-1,-4.3863845E-1,4.8987287E-1,2.015975E-1,5.8558226E-1,3.9413518E-1,-4.9736103E-1,2.2535997E-3,5.220691E-1,5.447181E-1,-5.8030684E-2,3.0340735E-2,1.2752236E-1,2.8980061E-2,-7.0533413E-3,-2.7814059E-2,1.2508968E-3,2.7958496E-2,3.1182321E-3,1.1928206E-3,2.9431084E-2,-1.3580705E-2,2.6360566E-2,-1.0673558E-2,1.839084E-2],"categories":[],"categories_nodes":[],"categories_segments":[],"categories_sizes":[],"default_left":[0,0,0,0,0,0,0,0,0,0,0,0,0,0,0,0,0,0,0,0,0,0,0,0,0,0,0],"id":49,"left_children":[1,3,5,7,9,11,13,15,17,-1,19,21,23,-1,25,-1,-1,-1,-1,-1,-1,-1,-1,-1,-1,-1,-1],"loss_changes":[2.7590149E1,1.1340905E1,2.5536137E0,4.847397E0,1.9724822E-1,2.5951586E0,4.434147E-1,7.590345E-1,2.7622013E0,0E0,2.0870495E-1,2.716124E-1,2.3038146E0,0E0,3.7663117E-1,0E0,0E0,0E0,0E0,0E0,0E0,0E0,0E0,0E0,0E0,0E0,0E0],"parents":[2147483647,0,0,1,1,2,2,3,3,4,4,5,5,6,6,7,7,8,8,10,10,11,11,12,12,14,14],"right_children":[2,4,6,8,10,12,14,16,18,-1,20,22,24,-1,26,-1,-1,-1,-1,-1,-1,-1,-1,-1,-1,-1,-1],"split_conditions":[2.41E1,8.1E1,7.7E1,1.85E1,8.3E1,7E1,5.4E1,2.4E1,1E0,2.2535997E-3,3.8E1,2.45E1,1.25E2,3.0340735E-2,1.35E2,2.8980061E-2,-7.0533413E-3,-2.7814059E-2,1.2508968E-3,2.7958496E-2,3.1182321E-3,1.1928206E-3,2.9431084E-2,-1.3580705E-2,2.6360566E-2,-1.0673558E-2,1.839084E-2],"split_indices":[5,10,10,5,10,10,0,0,7,0,0,5,1,0,1,0,0,0,0,0,0,0,0,0,0,0,0],"split_type":[0,0,0,0,0,0,0,0,0,0,0,0,0,0,0,0,0,0,0,0,0,0,0,0,0,0,0],"sum_hessian":[1.8885687E2,1.0853153E2,8.032534E1,9.411495E1,1.4416581E1,2.7776825E1,5.254852E1,5.8230886E0,8.829186E1,1.135075E0,1.3281507E1,1.1491615E1,1.628521E1,4.9910282E1,2.6382363E0,4.2628913E0,1.5601976E0,7.9284325E1,9.007533E0,1.208945E1,1.1920562E0,1.0133116E0,1.0478303E1,1.2323615E1,3.9615953E0,1.136746E0,1.5014902E0],"tree_param":{"num_deleted":"0","num_feature":"11","num_nodes":"27","size_leaf_vector":"1"}},{"base_weights":[-9.243399E-3,2.8247327E-1,-4.5311645E-1,4.3242756E-1,-3.3880153E-1,-2.0847319E-1,-3.0102327E-2,5.016188E-1,-4.187526E-1,1.04631394E-1,-4.7344425E-1,1.09111615E-1,-5.4566896E-1,-1.7656668E-3,2.5548026E-2,4.4510537E-3,-2.6640324E-2,-2.109335E-2,2.3727551E-2,-2.5413489E-2,-2.2704313E-3,-7.043177E-3,2.6961131E-2,-9.340183E-3,-2.985689E-2],"categories":[],"categories_nodes":[],"categories_segments":[],"categories_sizes":[],"default_left":[0,0,0,0,0,0,0,0,0,0,0,0,0,0,0,0,0,0,0,0,0,0,0,0,0],"id":50,"left_children":[1,3,5,7,9,11,-1,13,15,17,19,21,23,-1,-1,-1,-1,-1,-1,-1,-1,-1,-1,-1,-1],"loss_changes":[2.374021E1,1.0455277E1,2.523343E0,5.4856644E0,1.367562E0,3.1694067E0,0E0,4.3585587E-1,4.6899796E-1,1.3611262E0,2.320447E-1,1.7734752E0,1.5169048E-1,0E0,0E0,0E0,0E0,0E0,0E0,0E0,0E0,0E0,0E0,0E0,0E0],"parents":[2147483647,0,0,1,1,2,2,3,3,4,4,5,5,7,7,8,8,9,9,10,10,11,11,12,12],"right_children":[2,4,6,8,10,12,-1,14,16,18,20,22,24,-1,-1,-1,-1,-1,-1,-1,-1,-1,-1,-1,-1],"split_conditions":[1E0,7.9E1,2.45E1,8E0,2.35E1,7.8E1,-3.0102327E-2,1.72E1,2.31E1,1.8E1,5.4E1,2.6E1,8.1E1,-1.7656668E-3,2.5548026E-2,4.4510537E-3,-2.6640324E-2,-2.109335E-2,2.3727551E-2,-2.5413489E-2,-2.2704313E-3,-7.043177E-3,2.6961131E-2,-9.340183E-3,-2.985689E-2],"split_indices":[9,10,5,3,5,10,0,5,5,5,0,0,10,0,0,0,0,0,0,0,0,0,0,0,0],"split_type":[0,0,0,0,0,0,0,0,0,0,0,0,0,0,0,0,0,0,0,0,0,0,0,0,0],"sum_hessian":[1.8135461E2,1.0965328E2,7.170133E1,8.857766E1,2.1075623E1,2.8040234E1,4.36611E1,8.229841E1,6.2792478E0,4.960753E0,1.611487E1,1.47883625E1,1.3251871E1,1.3598198E0,8.093859E1,1.1919783E0,5.0872693E0,1.9891753E0,2.971578E0,1.4729048E1,1.3858216E0,9.778004E0,5.010359E0,2.242881E0,1.1008989E1],"tree_param":{"num_deleted":"0","num_feature":"11","num_nodes":"25","size_leaf_vector":"1"}},{"base_weights":[-4.5087333E-3,-2.805599E-1,4.800069E-1,-4.7210377E-1,3.0888056E-2,1.0452062E-1,5.552586E-1,-5.337363E-1,1.8987492E-1,4.682288E-1,-2.634396E-2,3.7428528E-1,3.066693E-2,-2.7849797E-2,1.021359E-2,-5.565218E-3,2.7564494E-2,-3.9090775E-4,2.7669972E-2,2.6268258E-3,2.9353097E-2],"categories":[],"categories_nodes":[],"categories_segments":[],"categories_sizes":[],"default_left":[0,0,0,0,0,0,0,0,0,0,0,0,0,0,0,0,0,0,0,0,0],"id":51,"left_children":[1,3,5,7,-1,9,11,13,15,17,-1,19,-1,-1,-1,-1,-1,-1,-1,-1,-1],"loss_changes":[2.4586872E1,2.0439926E1,1.8273087E0,4.0622425E0,0E0,3.0877705E0,3.522396E-1,1.6428375E0,1.0417187E0,3.4406614E-1,0E0,1.065485E0,0E0,0E0,0E0,0E0,0E0,0E0,0E0,0E0,0E0],"parents":[2147483647,0,0,1,1,2,2,3,3,5,5,6,6,7,7,8,8,9,9,11,11],"right_children":[2,4,6,8,-1,10,12,14,16,18,-1,20,-1,-1,-1,-1,-1,-1,-1,-1,-1],"split_conditions":[1E0,1E0,2.22E1,2.59E1,3.0888056E-2,1.84E1,7.7E1,1E0,7.8E1,1.69E1,-2.634396E-2,1.15E2,3.066693E-2,-2.7849797E-2,1.021359E-2,-5.565218E-3,2.7564494E-2,-3.9090775E-4,2.7669972E-2,2.6268258E-3,2.9353097E-2],"split_indices":[7,8,5,5,0,5,10,6,10,5,0,1,0,0,0,0,0,0,0,0,0],"split_type":[0,0,0,0,0,0,0,0,0,0,0,0,0,0,0,0,0,0,0,0,0],"sum_hessian":[1.8181866E2,1.16094925E2,6.572375E1,9.60823E1,2.0012623E1,1.137156E1,5.435219E1,8.807586E1,8.006443E0,7.3792715E0,3.9922886E0,1.5013979E1,3.9338207E1,8.562258E1,2.4532769E0,4.7446213E0,3.2618213E0,1.2577116E0,6.1215596E0,6.4729147E0,8.541064E0],"tree_param":{"num_deleted":"0","num_feature":"11","num_nodes":"21","size_leaf_vector":"1"}},{"base_weights":[-1.1280234E-3,2.8490192E-1,-4.4192997E-1,4.3164983E-1,-3.5733548E-1,-1.986908E-1,-2.9775226E-2,4.8594466E-1,-3.7697285E-1,-2.0166314E-1,-2.8148258E-2,1.11496426E-1,-5.379425E-1,2.5333807E-2,-2.3003597E-2,5.476668E-3,-2.5401557E-2,-1.3389406E-2,1.1574296E-2,-7.342869E-3,2.6878241E-2,-1.1469801E-2,-2.9383643E-2],"categories":[],"categories_nodes":[],"categories_segments":[],"categories_sizes":[],"default_left":[0,0,0,0,0,0,0,0,0,0,0,0,0,0,0,0,0,0,0,0,0,0,0],"id":52,"left_children":[1,3,5,7,9,11,-1,13,15,17,-1,19,21,-1,-1,-1,-1,-1,-1,-1,-1,-1,-1],"loss_changes":[2.2494518E1,1.0352089E1,2.504363E0,4.070053E0,5.4821396E-1,3.0772796E0,0E0,1.8687229E0,4.4672304E-1,4.4360292E-1,0E0,1.8188578E0,7.796049E-2,0E0,0E0,0E0,0E0,0E0,0E0,0E0,0E0,0E0,0E0],"parents":[2147483647,0,0,1,1,2,2,3,3,4,4,5,5,7,7,8,8,9,9,11,11,12,12],"right_children":[2,4,6,8,10,12,-1,14,16,18,-1,20,22,-1,-1,-1,-1,-1,-1,-1,-1,-1,-1],"split_conditions":[1E0,7.9E1,2.45E1,8E0,2.51E1,7.8E1,-2.9775226E-2,2.93E1,2.52E1,3.8E1,-2.8148258E-2,2.6E1,8.1E1,2.5333807E-2,-2.3003597E-2,5.476668E-3,-2.5401557E-2,-1.3389406E-2,1.1574296E-2,-7.342869E-3,2.6878241E-2,-1.1469801E-2,-2.9383643E-2],"split_indices":[9,10,5,3,5,10,0,5,5,0,0,0,10,0,0,0,0,0,0,0,0,0,0],"split_type":[0,0,0,0,0,0,0,0,0,0,0,0,0,0,0,0,0,0,0,0,0,0,0],"sum_hessian":[1.7641245E2,1.0720339E2,6.9209045E1,8.753093E1,1.9672468E1,2.7672972E1,4.153607E1,8.2397415E1,5.133512E0,1.23235855E1,7.348882E0,1.4806408E1,1.2866564E1,8.108489E1,1.3125249E0,1.1242778E0,4.0092344E0,1.1022625E1,1.3009608E0,9.6252775E0,5.181131E0,2.5650136E0,1.030155E1],"tree_param":{"num_deleted":"0","num_feature":"11","num_nodes":"23","size_leaf_vector":"1"}},{"base_weights":[7.523284E-3,-3.0714896E-1,4.1788357E-1,4.807351E-1,-4.1432008E-1,1.8896493E-1,2.9567251E-2,-3.0852365E-3,5.4209626E-1,-4.9393082E-1,-9.0050173E-4,-1.0514112E-1,5.069095E-1,2.947012E-2,9.350573E-3,-2.8255342E-2,-8.614314E-3,-1.7794905E-2,1.6801016E-2,-1.1306406E-2,2.5830463E-2,2.7716344E-2,-1.1091518E-3],"categories":[],"categories_nodes":[],"categories_segments":[],"categories_sizes":[],"default_left":[0,0,0,0,0,0,0,0,0,0,0,0,0,0,0,0,0,0,0,0,0,0,0],"id":53,"left_children":[1,3,5,7,9,11,-1,-1,13,15,17,19,21,-1,-1,-1,-1,-1,-1,-1,-1,-1,-1],"loss_changes":[2.2715721E1,8.607528E0,2.9196596E0,4.457233E-1,2.9022331E0,3.2681026E0,0E0,0E0,7.8407764E-2,1.5956211E0,1.9426987E0,1.5225608E0,4.3106842E-1,0E0,0E0,0E0,0E0,0E0,0E0,0E0,0E0,0E0,0E0],"parents":[2147483647,0,0,1,1,2,2,3,3,4,4,5,5,8,8,9,9,10,10,11,11,12,12],"right_children":[2,4,6,8,10,12,-1,-1,14,16,18,20,22,-1,-1,-1,-1,-1,-1,-1,-1,-1,-1],"split_conditions":[2.41E1,1.84E1,7.9E0,1.66E1,1E0,1E0,2.9567251E-2,-3.0852365E-3,1.8E1,2.39E1,2.3E1,1E0,1.01E2,2.947012E-2,9.350573E-3,-2.8255342E-2,-8.614314E-3,-1.7794905E-2,1.6801016E-2,-1.1306406E-2,2.5830463E-2,2.7716344E-2,-1.1091518E-3],"split_indices":[5,5,3,5,9,9,0,0,5,5,5,8,4,0,0,0,0,0,0,0,0,0,0],"split_type":[0,0,0,0,0,0,0,0,0,0,0,0,0,0,0,0,0,0,0,0,0,0,0],"sum_hessian":[1.7392097E2,9.857968E1,7.53413E1,1.1386259E1,8.719342E1,3.3379482E1,4.196182E1,1.1565568E0,1.0229702E1,7.29508E1,1.4242617E1,1.7687471E1,1.5692011E1,8.444758E0,1.7849442E0,5.9112907E1,1.3837893E1,6.907833E0,7.334784E0,1.5338954E1,2.348518E0,1.4357587E1,1.3344245E0],"tree_param":{"num_deleted":"0","num_feature":"11","num_nodes":"23","size_leaf_vector":"1"}},{"base_weights":[-7.376492E-4,2.6566717E-1,-4.757242E-1,4.6329275E-1,-3.0372593E-1,-1.3426667E-1,-5.440751E-1,5.2742535E-1,-2.4849701E-1,-4.391445E-2,-2.8481308E-2,-4.639886E-1,2.5103498E-2,-3.0876246E-1,-2.99278E-2,-2.1914447E-2,2.7602807E-2,5.2127996E-3,-2.738454E-2,8.57485E-3,-2.6911562E-2,-2.3920592E-3,-2.7043303E-2,1.913811E-3,-2.6842011E-2],"categories":[],"categories_nodes":[],"categories_segments":[],"categories_sizes":[],"default_left":[0,0,0,0,0,0,0,0,0,0,0,0,0,0,0,0,0,0,0,0,0,0,0,0,0],"id":54,"left_children":[1,3,5,7,9,11,13,15,17,19,-1,21,-1,23,-1,-1,-1,-1,-1,-1,-1,-1,-1,-1,-1],"loss_changes":[2.1890335E1,1.2612398E1,1.3777256E0,3.904976E0,1.9895167E0,2.6868029E0,4.7498322E-1,2.0535164E0,8.5002303E-1,1.778197E0,0E0,2.372092E-1,0E0,9.498693E-1,0E0,0E0,0E0,0E0,0E0,0E0,0E0,0E0,0E0,0E0,0E0],"parents":[2147483647,0,0,1,1,2,2,3,3,4,4,5,5,6,6,7,7,8,8,9,9,11,11,13,13],"right_children":[2,4,6,8,10,12,14,16,18,20,-1,22,-1,24,-1,-1,-1,-1,-1,-1,-1,-1,-1,-1,-1],"split_conditions":[1E0,1E0,2.22E1,2.57E1,2.45E1,1.84E1,6.3E1,1.8E1,1.25E2,8.1E1,-2.8481308E-2,1.68E1,2.5103498E-2,7.7E1,-2.99278E-2,-2.1914447E-2,2.7602807E-2,5.2127996E-3,-2.738454E-2,8.57485E-3,-2.6911562E-2,-2.3920592E-3,-2.7043303E-2,1.913811E-3,-2.6842011E-2],"split_indices":[7,9,5,5,5,5,2,5,1,10,0,5,0,10,0,0,0,0,0,0,0,0,0,0,0],"split_type":[0,0,0,0,0,0,0,0,0,0,0,0,0,0,0,0,0,0,0,0,0,0,0,0,0],"sum_hessian":[1.7099442E2,1.0983317E2,6.1161243E1,8.167252E1,2.8160648E1,1.0695343E1,5.04659E1,7.515962E1,6.5129004E0,1.4832725E1,1.3327924E1,7.2233577E0,3.4719853E0,1.0740998E1,3.9724903E1,1.4516004E0,7.370802E1,3.2879329E0,3.2249675E0,1.0785656E1,4.0470686E0,1.3793058E0,5.844052E0,4.589652E0,6.151346E0],"tree_param":{"num_deleted":"0","num_feature":"11","num_nodes":"25","size_leaf_vector":"1"}},{"base_weights":[-9.973789E-3,-2.751057E-1,4.6681437E-1,-4.4720155E-1,2.986367E-2,2.0513174E-1,2.866554E-2,-5.055868E-1,2.7581793E-1,-6.519966E-2,2.6739463E-2,-2.7395252E-2,-3.4224335E-3,1.96313E-2,-9.69473E-3,2.193398E-2,-1.6102929E-2],"categories":[],"categories_nodes":[],"categories_segments":[],"categories_sizes":[],"default_left":[0,0,0,0,0,0,0,0,0,0,0,0,0,0,0,0,0],"id":55,"left_children":[1,3,5,7,-1,9,-1,11,13,15,-1,-1,-1,-1,-1,-1,-1],"loss_changes":[2.2381197E1,1.7345589E1,1.6458502E0,4.1744194E0,0E0,1.8047694E0,0E0,1.6051178E0,5.034773E-1,1.6689533E0,0E0,0E0,0E0,0E0,0E0,0E0,0E0],"parents":[2147483647,0,0,1,1,2,2,3,3,5,5,7,7,8,8,9,9],"right_children":[2,4,6,8,-1,10,-1,12,14,16,-1,-1,-1,-1,-1,-1,-1],"split_conditions":[1E0,1E0,7.7E1,7.9E0,2.986367E-2,7.9E0,2.866554E-2,7.9E1,3.4E1,7E1,2.6739463E-2,-2.7395252E-2,-3.4224335E-3,1.96313E-2,-9.69473E-3,2.193398E-2,-1.6102929E-2],"split_indices":[7,8,10,3,0,3,0,10,0,10,0,0,0,0,0,0,0],"split_type":[0,0,0,0,0,0,0,0,0,0,0,0,0,0,0,0,0],"sum_hessian":[1.7503404E2,1.1275587E2,6.2278175E1,9.4584404E1,1.8171463E1,1.8860474E1,4.34177E1,8.779547E1,6.7889323E0,1.0803458E1,8.057016E0,7.981536E1,7.980112E0,5.568318E0,1.2206144E0,3.4087203E0,7.3947377E0],"tree_param":{"num_deleted":"0","num_feature":"11","num_nodes":"17","size_leaf_vector":"1"}},{"base_weights":[-1.4194822E-2,2.4644315E-1,-4.7056472E-1,4.2346206E-1,-2.9955272E-2,-1.3028258E-1,-5.4695284E-1,5.0519717E-1,-3.161216E-1,-4.642073E-1,2.5280444E-2,-3.5329744E-1,-2.9425353E-2,2.6597036E-2,-3.1174568E-3,2.2125174E-3,-2.7957356E-2,6.1315444E-4,-2.7362108E-2,2.6513028E-3,-2.6815815E-2],"categories":[],"categories_nodes":[],"categories_segments":[],"categories_sizes":[],"default_left":[0,0,0,0,0,0,0,0,0,0,0,0,0,0,0,0,0,0,0,0,0],"id":56,"left_children":[1,3,5,7,-1,9,11,13,15,17,-1,19,-1,-1,-1,-1,-1,-1,-1,-1,-1],"loss_changes":[1.9704506E1,1.6041052E1,1.4937344E0,5.4673433E0,0E0,2.8571966E0,1.8524265E-1,1.2390614E0,8.438666E-1,3.477224E-1,0E0,8.563802E-1,0E0,0E0,0E0,0E0,0E0,0E0,0E0,0E0,0E0],"parents":[2147483647,0,0,1,1,2,2,3,3,5,5,6,6,7,7,8,8,9,9,11,11],"right_children":[2,4,6,8,-1,10,12,14,16,18,-1,20,-1,-1,-1,-1,-1,-1,-1,-1,-1],"split_conditions":[1E0,1E0,2.22E1,2.57E1,-2.9955272E-2,1.84E1,6.3E1,7.9E0,7.7E1,5.2E0,2.5280444E-2,7.7E1,-2.9425353E-2,2.6597036E-2,-3.1174568E-3,2.2125174E-3,-2.7957356E-2,6.1315444E-4,-2.7362108E-2,2.6513028E-3,-2.6815815E-2],"split_indices":[7,8,5,5,0,5,2,3,10,3,0,10,0,0,0,0,0,0,0,0,0],"split_type":[0,0,0,0,0,0,0,0,0,0,0,0,0,0,0,0,0,0,0,0,0],"sum_hessian":[1.6368246E2,1.0447539E2,5.9207077E1,8.680219E1,1.7673193E1,1.1350433E1,4.7856644E1,7.844929E1,8.352911E0,7.6193075E0,3.7311258E0,1.0133507E1,3.7723137E1,7.497892E1,3.4703662E0,3.6936612E0,4.65925E0,1.2572539E0,6.3620534E0,3.367508E0,6.765999E0],"tree_param":{"num_deleted":"0","num_feature":"11","num_nodes":"21","size_leaf_vector":"1"}},{"base_weights":[1.28493775E-2,-2.5337538E-1,4.7686815E-1,-4.5047057E-1,2.978066E-1,2.3562716E-1,2.8514499E-2,-4.8874703E-1,1.4920118E-1,-9.52202E-2,4.9148157E-1,-5.26853E-3,2.629368E-2,-2.5394714E-2,1.1042933E-2,1.7193401E-2,-1.2154196E-2,-1.9448953E-2,1.6394785E-2,1.6482176E-2,2.814853E-2,2.0802801E-2,-1.06759025E-2],"categories":[],"categories_nodes":[],"categories_segments":[],"categories_sizes":[],"default_left":[0,0,0,0,0,0,0,0,0,0,0,0,0,0,0,0,0,0,0,0,0,0,0],"id":57,"left_children":[1,3,5,7,9,11,-1,13,15,17,19,21,-1,-1,-1,-1,-1,-1,-1,-1,-1,-1,-1],"loss_changes":[2.0660868E1,1.1682833E1,1.2395926E0,1.8794327E0,2.2240503E0,1.3118266E0,0E0,1.1205387E0,5.0270194E-1,1.405264E0,3.798437E-2,1.0733808E0,0E0,0E0,0E0,0E0,0E0,0E0,0E0,0E0,0E0,0E0,0E0],"parents":[2147483647,0,0,1,1,2,2,3,3,4,4,5,5,7,7,8,8,9,9,10,10,11,11],"right_children":[2,4,6,8,10,12,-1,14,16,18,20,22,-1,-1,-1,-1,-1,-1,-1,-1,-1,-1,-1],"split_conditions":[1E0,1E0,7.7E1,7.9E0,7E0,7.9E0,2.8514499E-2,1E0,3.1E1,8.5E1,7.8E1,7E1,2.629368E-2,-2.5394714E-2,1.1042933E-2,1.7193401E-2,-1.2154196E-2,-1.9448953E-2,1.6394785E-2,1.6482176E-2,2.814853E-2,2.0802801E-2,-1.06759025E-2],"split_indices":[7,9,10,3,3,3,0,6,0,2,10,10,0,0,0,0,0,0,0,0,0,0,0],"split_type":[0,0,0,0,0,0,0,0,0,0,0,0,0,0,0,0,0,0,0,0,0,0,0],"sum_hessian":[1.6527132E2,1.0530685E2,5.996448E1,7.770375E1,2.7603088E1,1.7722431E1,4.2242046E1,7.321546E1,4.488296E0,9.279813E0,1.8323277E1,1.0221089E1,7.5013433E0,7.156859E1,1.6468714E0,3.0822093E0,1.4060867E0,5.524777E0,3.7550356E0,7.3332477E0,1.0990028E1,3.0508409E0,7.170248E0],"tree_param":{"num_deleted":"0","num_feature":"11","num_nodes":"23","size_leaf_vector":"1"}},{"base_weights":[3.8154388E-3,2.783053E-1,-4.240334E-1,4.488173E-1,-3.419829E-1,-1.999459E-1,-2.7390739E-2,5.1519835E-1,-2.7025724E-2,9.30533E-2,-5.0829744E-1,-3.6121157E-1,2.4243009E-1,2.7398048E-2,1.7681699E-3,1.9757224E-2,-2.1002688E-2,-9.595098E-3,-2.8085409E-2,-1.04971565E-2,-3.1320926E-2,2.4065837E-2,-1.0231276E-3],"categories":[],"categories_nodes":[],"categories_segments":[],"categories_sizes":[],"default_left":[0,0,0,0,0,0,0,0,0,0,0,0,0,0,0,0,0,0,0,0,0,0,0],"id":58,"left_children":[1,3,5,7,9,11,-1,13,-1,15,17,19,21,-1,-1,-1,-1,-1,-1,-1,-1,-1,-1],"loss_changes":[1.8495579E1,1.0299736E1,1.5978413E0,5.248496E0,1.5849459E0,1.7624454E0,0E0,1.1035786E0,0E0,1.2080663E0,1.5463257E-1,5.7483125E-1,4.413254E-1,0E0,0E0,0E0,0E0,0E0,0E0,0E0,0E0,0E0,0E0],"parents":[2147483647,0,0,1,1,2,2,3,3,4,4,5,5,7,7,9,9,10,10,11,11,12,12],"right_children":[2,4,6,8,10,12,-1,14,-1,16,18,20,22,-1,-1,-1,-1,-1,-1,-1,-1,-1,-1],"split_conditions":[1E0,1E0,7.01E0,1E0,7.5E1,2.6E1,-2.7390739E-2,1.4E2,-2.7025724E-2,8.5E1,5.2E0,8.5E1,7.5E1,2.7398048E-2,1.7681699E-3,1.9757224E-2,-2.1002688E-2,-9.595098E-3,-2.8085409E-2,-1.04971565E-2,-3.1320926E-2,2.4065837E-2,-1.0231276E-3],"split_indices":[9,7,3,8,10,0,0,1,0,2,3,2,10,0,0,0,0,0,0,0,0,0,0],"split_type":[0,0,0,0,0,0,0,0,0,0,0,0,0,0,0,0,0,0,0,0,0,0,0],"sum_hessian":[1.5548451E2,9.4930565E1,6.0553944E1,7.4678505E1,2.0252058E1,2.247737E1,3.8076572E1,7.043199E1,4.246517E0,5.722904E0,1.4529154E1,1.6606894E1,5.8704753E0,6.579744E1,4.6345534E0,3.7468498E0,1.9760547E0,2.7617855E0,1.1767368E1,1.1715971E1,4.8909225E0,2.6403654E0,3.23011E0],"tree_param":{"num_deleted":"0","num_feature":"11","num_nodes":"23","size_leaf_vector":"1"}},{"base_weights":[1.2727696E-2,-2.4069123E-1,4.6115276E-1,-4.1659E-1,2.9802326E-2,1.2945761E-1,5.2910775E-1,-4.858937E-1,2.2793235E-1,4.4571754E-1,-2.4487063E-2,3.092329E-1,2.9251326E-2,-2.6634848E-2,1.715585E-2,-1.4598668E-2,2.877984E-2,-1.6417053E-3,2.6762132E-2,-9.245965E-4,2.2489369E-2],"categories":[],"categories_nodes":[],"categories_segments":[],"categories_sizes":[],"default_left":[0,0,0,0,0,0,0,0,0,0,0,0,0,0,0,0,0,0,0,0,0],"id":59,"left_children":[1,3,5,7,-1,9,11,13,15,17,-1,19,-1,-1,-1,-1,-1,-1,-1,-1,-1],"loss_changes":[1.8616802E1,1.5658728E1,1.2646055E0,4.0015354E0,0E0,2.446879E0,4.186325E-1,3.246746E0,1.8196874E0,3.6273062E-1,0E0,5.614511E-1,0E0,0E0,0E0,0E0,0E0,0E0,0E0,0E0,0E0],"parents":[2147483647,0,0,1,1,2,2,3,3,5,5,6,6,7,7,8,8,9,9,11,11],"right_children":[2,4,6,8,-1,10,12,14,16,18,-1,20,-1,-1,-1,-1,-1,-1,-1,-1,-1],"split_conditions":[1E0,1E0,2.22E1,1.4E2,2.9802326E-2,1.84E1,6.3E1,1E0,2.41E1,6E0,-2.4487063E-2,2.44E1,2.9251326E-2,-2.6634848E-2,1.715585E-2,-1.4598668E-2,2.877984E-2,-1.6417053E-3,2.6762132E-2,-9.245965E-4,2.2489369E-2],"split_indices":[7,8,5,1,0,5,2,6,5,3,0,5,0,0,0,0,0,0,0,0,0],"split_type":[0,0,0,0,0,0,0,0,0,0,0,0,0,0,0,0,0,0,0,0,0],"sum_hessian":[1.6184676E2,1.0370378E2,5.814297E1,8.610495E1,1.7598831E1,1.0380371E1,4.77626E1,7.7967445E1,8.137503E0,7.056425E0,3.3239455E0,1.1008144E1,3.6754456E1,7.413921E1,3.828231E0,3.325162E0,4.8123407E0,1.21184E0,5.8445854E0,3.5647674E0,7.4433765E0],"tree_param":{"num_deleted":"0","num_feature":"11","num_nodes":"21","size_leaf_vector":"1"}},{"base_weights":[-1.3567579E-2,2.463152E-1,-4.7755784E-1,4.5769596E-1,-3.063404E-1,-1.6211341E-1,-5.370213E-1,5.076217E-1,-2.6054269E-2,-1.2562945E-2,-5.3382224E-1,-4.322202E-1,2.3062581E-2,-3.1873265E-1,-2.9661605E-2,-2.0157909E-2,2.6373396E-2,9.554649E-3,-2.5427938E-2,-2.08114E-3,-2.9172052E-2,1.1211482E-3,-2.6090806E-2,-2.3937427E-2,1.2771114E-2],"categories":[],"categories_nodes":[],"categories_segments":[],"categories_sizes":[],"default_left":[0,0,0,0,0,0,0,0,0,0,0,0,0,0,0,0,0,0,0,0,0,0,0,0,0],"id":60,"left_children":[1,3,5,7,9,11,13,15,-1,17,19,21,-1,23,-1,-1,-1,-1,-1,-1,-1,-1,-1,-1,-1],"loss_changes":[1.9068825E1,1.1985663E1,9.776974E-1,3.8682222E0,1.9080987E0,